<?xml version="1.0"?>
<opencv_storage>
<my_nn type_id="opencv-ml-ann-mlp">
  <layer_sizes type_id="opencv-matrix">
    <rows>1</rows>
    <cols>3</cols>
    <dt>i</dt>
    <data>
      5120 20 3</data></layer_sizes>
  <activation_function>SIGMOID_SYM</activation_function>
  <f_param1>5.9999999999999998e-001</f_param1>
  <f_param2>1.</f_param2>
  <min_val>-9.4999999999999996e-001</min_val>
  <max_val>9.4999999999999996e-001</max_val>
  <min_val1>-9.7999999999999998e-001</min_val1>
  <max_val1>9.7999999999999998e-001</max_val1>
  <training_params>
    <train_method>BACKPROP</train_method>
    <dw_scale>1.0000000000000001e-001</dw_scale>
    <moment_scale>1.0000000000000001e-001</moment_scale>
    <term_criteria><epsilon>9.9999999747524271e-007</epsilon>
      <iterations>1000</iterations></term_criteria></training_params>
  <input_scale>
    1.2434039251080359e-002 -1.6761084910456325e+000
    1.7802991187035294e-002 -3.2033515475872174e+000
    1.6397167282409052e-002 -2.7806862849752019e+000
    1.2544183935174395e-002 -2.0446322915226753e+000
    1.4090889437755046e-002 -2.6317084506580510e+000
    1.3845361692928184e-002 -2.0499596359901613e+000
    1.3065333464026878e-002 -2.0590239687447247e+000
    1.8248147144063757e-002 -3.9056103818058676e+000
    1.3473698720197670e-002 -1.7649048245823369e+000
    1.3841677933666623e-002 -2.3642354892810018e+000
    1.5104134287545819e-002 -2.8468775776309276e+000
    1.1531731470270926e-002 -1.3324915713898056e+000
    1.6068130741562270e-002 -2.9679622827525685e+000
    1.9525980617497728e-002 -4.1789937628249021e+000
    1.4886578139245894e-002 -2.0670013746342923e+000
    1.6382149514462416e-002 -1.8935034480466142e+000
    1.5866240993606319e-002 -2.4298266623875100e+000
    1.5863041295703938e-002 -2.9781097472540177e+000
    1.2926158367095731e-002 -1.8849211378862707e+000
    1.2757923017811017e-002 -1.6532850684081102e+000
    1.4158209246319695e-002 -2.3779498996374278e+000
    1.6159295049769821e-002 -3.0131698836137462e+000
    1.1792852217276290e-002 -1.9147005891661089e+000
    1.2435899857067985e-002 -2.2812967404465825e+000
    1.2906699099573626e-002 -2.1089546328703306e+000
    1.1530830857974954e-002 -1.8718382092779342e+000
    1.3503049117545841e-002 -2.0178806567381420e+000
    1.5792278289963040e-002 -2.2454865030739670e+000
    1.5606202088364579e-002 -2.3731831309039735e+000
    1.6578131404894794e-002 -2.7865075869727334e+000
    1.4917228776925952e-002 -2.4372265616700850e+000
    1.3382367606447045e-002 -2.0470561648661829e+000
    1.2930308098228663e-002 -1.7777018583714705e+000
    1.6958020335933601e-002 -3.1198046856913400e+000
    1.6506060806304471e-002 -2.9577026958141355e+000
    1.2747528976638960e-002 -2.2148831596910195e+000
    1.5735605511340414e-002 -2.9805859439397300e+000
    1.2878781256297463e-002 -1.8414510732962655e+000
    1.3298014775881786e-002 -2.1437138597320100e+000
    1.7019372895942044e-002 -3.4914297975308664e+000
    1.5021368282108141e-002 -1.9048764022633358e+000
    1.4980273409268311e-002 -2.7180041626294100e+000
    1.5387622385441774e-002 -2.9205707287568488e+000
    1.0503479105643979e-002 -1.3363343055464043e+000
    1.7377868936620557e-002 -3.3436950708384239e+000
    1.6890531783151561e-002 -3.5334992490353065e+000
    1.5562438836400523e-002 -2.0577867041398270e+000
    1.6016942087328599e-002 -1.7518975323073636e+000
    1.5119762361417537e-002 -2.6344505941174345e+000
    1.6063958211542467e-002 -3.1121241708494938e+000
    1.3638944704889685e-002 -2.3981053386947426e+000
    1.3017581676667209e-002 -1.6099132539127150e+000
    1.4099086901988826e-002 -2.2581254238746435e+000
    1.5907649628939622e-002 -2.9834796879076264e+000
    1.3433006240712440e-002 -2.3676419777380162e+000
    1.2601411047024811e-002 -2.3856571347192470e+000
    1.4225891902794238e-002 -2.4274903877462499e+000
    1.1942943630513077e-002 -1.9810025998679386e+000
    1.3252236945060976e-002 -1.9432196773774411e+000
    1.5664529245362210e-002 -2.1268079457078168e+000
    1.4866859935165705e-002 -2.2719039790922393e+000
    1.4292384406206074e-002 -2.4294671426482624e+000
    1.4931760431697810e-002 -2.4334621792436404e+000
    1.2559481891906654e-002 -1.8767354691478515e+000
    1.3129902863332888e-002 -1.7079815308052200e+000
    1.6955111324215382e-002 -2.9870196400121887e+000
    1.6444571927340605e-002 -2.8965286275351882e+000
    1.2858330503459792e-002 -2.2662807512347882e+000
    1.4501362438806275e-002 -2.6846855661710016e+000
    1.2894589600127909e-002 -1.8997312311432890e+000
    1.2608054341559831e-002 -2.0392127002546188e+000
    1.5251075515010728e-002 -3.0797852438618052e+000
    1.5097006094140492e-002 -2.0768448050172603e+000
    1.3675177178819518e-002 -2.3564609475302500e+000
    1.6981178926421581e-002 -3.3858583981626142e+000
    1.1157700155330142e-002 -1.3964481616626525e+000
    1.7875048706423362e-002 -3.4825560171420049e+000
    1.6558570304814911e-002 -3.5331389427612572e+000
    1.4651254593099981e-002 -1.9448726513751720e+000
    1.6423135084091971e-002 -1.7306334793058695e+000
    1.4919422138141940e-002 -2.5741805185793014e+000
    1.7085787593036007e-002 -3.3764363915104658e+000
    1.3094663611652884e-002 -2.2667590193082900e+000
    1.2664099451910323e-002 -1.6182608416299409e+000
    1.3391373809442527e-002 -2.1434381712436035e+000
    1.4948218795879466e-002 -2.7942373212497578e+000
    1.3939060898597323e-002 -2.5005126467539309e+000
    1.2186279884187384e-002 -2.2239283773092855e+000
    1.4010355954854567e-002 -2.3896997140330272e+000
    1.1915673929452697e-002 -2.0438690698436224e+000
    1.3897442926498001e-002 -1.9911175312858718e+000
    1.5829026301156821e-002 -2.3417285631861389e+000
    1.4775477167945807e-002 -2.2077025468439024e+000
    1.3576164091077179e-002 -2.3042521619249938e+000
    1.5330138998596112e-002 -2.5660097660483459e+000
    1.2592583203338812e-002 -1.8578257752659193e+000
    1.3982840036945724e-002 -1.8336164235114825e+000
    1.6633849823618013e-002 -2.8644413499038195e+000
    1.5674961841100305e-002 -2.5728708199739363e+000
    1.3583664666264556e-002 -2.3914796292995764e+000
    1.4005981450901435e-002 -2.4121412498774695e+000
    1.2039680863826207e-002 -1.6493025041123699e+000
    1.2509258081048443e-002 -1.8381659791318408e+000
    1.5291703105048461e-002 -2.9386405672596183e+000
    1.6224622118560190e-002 -2.1079389603591587e+000
    1.3412678019786234e-002 -2.1828388328423221e+000
    1.7534469340306700e-002 -3.4960809453014838e+000
    1.1447178013465937e-002 -1.3234845646568867e+000
    1.6118634228217580e-002 -2.9480086523730606e+000
    1.3603208783444931e-002 -2.5868012969363141e+000
    1.5264673378428592e-002 -1.9967040816394508e+000
    1.5199540779496149e-002 -1.6058314833537684e+000
    1.7058344849943331e-002 -2.6973981636885389e+000
    1.7176331338141254e-002 -3.3753399560707358e+000
    1.2803309321776268e-002 -2.0188684915554211e+000
    1.2716111734864579e-002 -1.5344108160069927e+000
    1.3071245542344205e-002 -2.0140610839828699e+000
    1.4985352160972541e-002 -2.6668099209579634e+000
    1.3508154822912207e-002 -2.3477923535267129e+000
    1.1247288236662647e-002 -1.8639256005535931e+000
    1.4382697276217545e-002 -2.5542871323824792e+000
    1.4457096189190074e-002 -2.7889344892968673e+000
    1.3031941845850331e-002 -1.7940639941120622e+000
    1.4902162945566616e-002 -2.0612175047542891e+000
    1.6485181310108850e-002 -2.6282874068750210e+000
    1.3986878540278681e-002 -2.2988211929755806e+000
    1.5168934760288216e-002 -2.4052874218230347e+000
    1.2202648369500548e-002 -1.6846433999004922e+000
    1.3448757448903080e-002 -1.7887594560232702e+000
    1.6291720319380629e-002 -2.6893104769430924e+000
    1.5795308914248487e-002 -2.5376041287902100e+000
    1.3594548093725430e-002 -2.3012548911989659e+000
    1.4475560028167208e-002 -2.4913243006255108e+000
    1.2205634667532973e-002 -1.6477606801169513e+000
    1.3668946865691117e-002 -1.9011986318302381e+000
    1.4920266528552452e-002 -2.8089888451088085e+000
    1.7455052322002614e-002 -2.1353347340583198e+000
    1.4056076714999442e-002 -2.3870341834672386e+000
    1.5954741067792624e-002 -3.0650830340237163e+000
    1.1236873254794876e-002 -1.3390607295297228e+000
    1.6069360850324128e-002 -2.9269448046595938e+000
    1.2685921930790951e-002 -2.2544997591337319e+000
    1.5568123457525295e-002 -2.0706469094256286e+000
    1.4739966492674575e-002 -1.5978123678059239e+000
    1.7348980232658955e-002 -2.6568999394082042e+000
    1.6747039717112475e-002 -3.2452041407382395e+000
    1.2553791420979956e-002 -1.7884968177756111e+000
    1.3488215019576647e-002 -1.6318492137851146e+000
    1.4140776996008849e-002 -2.1420920352787403e+000
    1.4938051510691502e-002 -2.7062769986869437e+000
    1.2704865262362249e-002 -2.1436636826844659e+000
    1.1015225823969783e-002 -1.6547928972553718e+000
    1.4745337622001808e-002 -2.6996255629614980e+000
    1.4643328571245624e-002 -2.7859746125048761e+000
    1.3039972373699629e-002 -1.7902433183270290e+000
    1.5439168982325559e-002 -2.0105228941428397e+000
    1.6761489862520365e-002 -2.6119988369094238e+000
    1.5570152992648719e-002 -2.7184622116665071e+000
    1.4490081840193424e-002 -2.3173665885202670e+000
    1.2979258980521347e-002 -1.8217832119048436e+000
    1.3125948239449424e-002 -1.7983278307392347e+000
    1.4969262239798328e-002 -2.5826967117732047e+000
    1.5801666682307612e-002 -2.6299240581587302e+000
    1.2879313174888508e-002 -2.1595746124693607e+000
    1.6257214824296731e-002 -2.7633652486899045e+000
    1.2022536394199902e-002 -1.5662693246888206e+000
    1.3527682644816174e-002 -1.8687742035888832e+000
    1.5342559665109994e-002 -2.8948852994785041e+000
    1.4876881534753821e-002 -2.1381384739115630e+000
    1.4694497217753004e-002 -2.4812474913132490e+000
    1.5792470843932264e-002 -2.9881109555702503e+000
    1.1495869042657673e-002 -1.2110898036439859e+000
    1.6221023662515779e-002 -2.9142871345672097e+000
    1.2711585111473207e-002 -2.3048222404619501e+000
    1.5083921406792530e-002 -1.7293715892887638e+000
    1.5674176403193019e-002 -1.6272407469248218e+000
    1.6850980290019909e-002 -2.6730335567829910e+000
    1.6701079655511479e-002 -3.1668958377884326e+000
    1.1720301543794047e-002 -1.7885831283693259e+000
    1.3727950726959403e-002 -1.5721554238085620e+000
    1.4191436680274902e-002 -2.0474301063892160e+000
    1.4888005220488342e-002 -2.4767023795683496e+000
    1.3948765149731651e-002 -2.4610271312509875e+000
    1.1185803903438341e-002 -1.6092021782196435e+000
    1.3733064948648102e-002 -2.4605837647713886e+000
    1.3576622860731715e-002 -2.5093370330760192e+000
    1.3472111237591063e-002 -1.7348337020895734e+000
    1.4899817867073197e-002 -1.7474175287439733e+000
    1.7315233825042242e-002 -2.6767427578645862e+000
    1.4337381724114502e-002 -2.4127423878064023e+000
    1.4799316292350108e-002 -2.3241504052897382e+000
    1.2326333323299181e-002 -1.6520025838403856e+000
    1.3709010094723277e-002 -1.8234506649325817e+000
    1.4286884434508708e-002 -2.4267860643616874e+000
    1.5928659911384233e-002 -2.4103602148126875e+000
    1.2846309465693010e-002 -1.9513544078387683e+000
    1.5070421002729293e-002 -2.4731398111090033e+000
    1.2585077096524016e-002 -1.6908750250129823e+000
    1.2917190146189989e-002 -1.6141464331013968e+000
    1.3547827576313756e-002 -2.4623929277037826e+000
    1.5918430486340961e-002 -2.1584507382229101e+000
    1.4893445201074633e-002 -2.4913424166908733e+000
    1.5027822059459784e-002 -2.7308057319048338e+000
    1.1447661381921522e-002 -1.1575493600686311e+000
    1.5569047272827173e-002 -2.7717228880985929e+000
    1.3329493712230391e-002 -2.4472209928226540e+000
    1.4733206353593230e-002 -1.7083971278455437e+000
    1.5772542035288852e-002 -1.7005429071047264e+000
    1.7074856054177669e-002 -2.5923425902698187e+000
    1.5809305232751720e-002 -2.9181342575454217e+000
    1.2779451871697029e-002 -2.0249751460252372e+000
    1.3786868112349134e-002 -1.4890583498454417e+000
    1.4603065207757606e-002 -2.0174945865917566e+000
    1.4928887097261182e-002 -2.5651974946177285e+000
    1.4518627894098730e-002 -2.6119011581483615e+000
    1.1382613155770839e-002 -1.4903002457891741e+000
    1.4967557431372739e-002 -2.6996484420385967e+000
    1.3780090147672525e-002 -2.4684734817864049e+000
    1.3499829211366027e-002 -1.5946298260670249e+000
    1.4946169756034390e-002 -1.6787039664319292e+000
    1.4567614817190315e-002 -2.2550667737010608e+000
    1.3486685356028132e-002 -2.0876639670833992e+000
    1.3734825858545454e-002 -2.0650310678323089e+000
    1.1872491482986072e-002 -1.5642007528834150e+000
    1.3444734989761883e-002 -1.8138441360632085e+000
    1.5610982448186147e-002 -2.5811892201273117e+000
    1.5828805967405254e-002 -2.4604120120112869e+000
    1.3866395342105485e-002 -2.2458938322430182e+000
    1.5044033818638461e-002 -2.4345425616839984e+000
    1.2975970322813777e-002 -1.8823807614961852e+000
    1.4187151455496823e-002 -1.8552853228385537e+000
    1.3228620732994157e-002 -2.2781889672338105e+000
    1.5150716706476062e-002 -2.1431530487794079e+000
    1.2955845639713429e-002 -2.0143460892945559e+000
    1.5604755349263515e-002 -2.8596581108378127e+000
    1.2325131554864976e-002 -1.1234357412259426e+000
    1.6671749366281213e-002 -2.9172782766097742e+000
    1.2437500009854751e-002 -2.2227194462055979e+000
    1.5906887326739345e-002 -1.7857248456190107e+000
    1.4954845392410144e-002 -1.6384694776873359e+000
    1.6252005881598416e-002 -2.4900781678255708e+000
    1.4429571721663524e-002 -2.4998431364908629e+000
    1.1629353004882879e-002 -1.8201875678142521e+000
    1.3529335142325943e-002 -1.3121951828595906e+000
    1.3806564890382339e-002 -1.8061287970768496e+000
    1.5135268683256450e-002 -2.5019439981683091e+000
    1.3139433152043817e-002 -2.2761148061882128e+000
    1.1452653263403802e-002 -1.5925550621277620e+000
    1.4019382091752896e-002 -2.4549495751780626e+000
    1.4044483801036534e-002 -2.6194522787133252e+000
    1.3631012886793435e-002 -1.5849838873365922e+000
    1.5415947601313906e-002 -1.8327848814895420e+000
    1.6124547885073337e-002 -2.5238500673003119e+000
    1.3397426031990189e-002 -1.9791719756480619e+000
    1.4800177724378513e-002 -2.2613027098658769e+000
    1.1649785697212877e-002 -1.4699440708616602e+000
    1.3202431333956674e-002 -1.8470934904612830e+000
    1.4890822398762478e-002 -2.4768401256608255e+000
    1.5816996334796399e-002 -2.6234245865297026e+000
    1.2997351943764458e-002 -2.0336523341343455e+000
    1.6056661543659655e-002 -2.7918966277414436e+000
    1.3202119363751518e-002 -1.8320140970432526e+000
    1.4058721754283550e-002 -1.8467693104446363e+000
    1.4038697449813385e-002 -2.5030217625381166e+000
    1.3939982823143439e-002 -2.0316750521241387e+000
    1.4248049457303874e-002 -2.4745695674124093e+000
    1.6229648941340061e-002 -2.9066399606776638e+000
    1.1398863295915261e-002 -1.1934609870823278e+000
    1.6572819468990974e-002 -2.9139620187449742e+000
    1.2274042329928266e-002 -2.1077940136689590e+000
    1.5093465811165474e-002 -1.7967093996435701e+000
    1.5061026085418937e-002 -1.5749649666991148e+000
    1.6346125937666291e-002 -2.5510853880051192e+000
    1.3999648647794950e-002 -2.4227169743267369e+000
    1.2587681715158578e-002 -1.9474542244652004e+000
    1.3941108641738999e-002 -1.3614267094693784e+000
    1.3976993112597513e-002 -1.9791422247438077e+000
    1.5076475747177577e-002 -2.4481683867458521e+000
    1.3522745917277468e-002 -2.3851870007091240e+000
    1.0922550910753729e-002 -1.5122271735938537e+000
    1.3721089816096365e-002 -2.3989800977909375e+000
    1.2993928511271072e-002 -2.3072163841596374e+000
    1.3803227379845542e-002 -1.6171247721454598e+000
    1.4581727258870102e-002 -1.7988990861692749e+000
    1.6227996754703215e-002 -2.6649075337348465e+000
    1.2721500088049863e-002 -1.9497819134951091e+000
    1.5009513417864554e-002 -2.3199704572879312e+000
    1.2596592521419800e-002 -1.6836745526268830e+000
    1.2735905391233343e-002 -1.7869890364499406e+000
    1.5335694307947550e-002 -2.5061080448237618e+000
    1.6727462673408890e-002 -2.6137589730683248e+000
    1.4164149304513554e-002 -2.1719936061287948e+000
    1.5274052219155411e-002 -2.4738873244292048e+000
    1.3213446839141163e-002 -1.7465240399824808e+000
    1.4836240259694440e-002 -1.8365616970361751e+000
    1.3320260823277330e-002 -2.2827966993136615e+000
    1.4370425241537898e-002 -2.2096923879738108e+000
    1.4389776943584391e-002 -2.3772710942853834e+000
    1.5804715936287433e-002 -2.7954152292421282e+000
    1.2600360010658897e-002 -1.2591259750651198e+000
    1.7081166867205247e-002 -3.1481539489974111e+000
    1.3208946067147521e-002 -2.3181700347843899e+000
    1.5063929091079259e-002 -1.6910097289685972e+000
    1.4955768291465922e-002 -1.6227008596240526e+000
    1.5183277508332690e-002 -2.2038527303344901e+000
    1.3553636064911563e-002 -2.3316018930554807e+000
    1.3438829696081693e-002 -1.8414183090231049e+000
    1.3221722118894974e-002 -1.3710191297176371e+000
    1.4602467655075873e-002 -1.9675202668808618e+000
    1.5930403074845674e-002 -2.5716095674766151e+000
    1.3482866498805826e-002 -2.3383035749623415e+000
    1.1656785644485365e-002 -1.5221171654888002e+000
    1.5219991266378425e-002 -2.7595535276084791e+000
    1.3950397889375545e-002 -2.5853962399537713e+000
    1.4884859282216641e-002 -1.7621192580264133e+000
    1.5605658077112233e-002 -1.6782151299925638e+000
    1.5958803707672286e-002 -2.4252062034425985e+000
    1.3756572808610071e-002 -2.1453375295027404e+000
    1.4259151046274952e-002 -2.2234769531491407e+000
    1.2648775343260598e-002 -1.4804688829545238e+000
    1.2897378484549174e-002 -1.7780469283004876e+000
    1.5237177184130382e-002 -2.3775921976148338e+000
    1.6289427335334401e-002 -2.5547251870916119e+000
    1.4575196986460813e-002 -2.1393959976626729e+000
    1.4344316673845408e-002 -2.2510217393672844e+000
    1.2904267592797858e-002 -1.8381412282185394e+000
    1.4488354897813633e-002 -1.7901167384854177e+000
    1.3898472084299672e-002 -2.2938656037798593e+000
    1.4132233618278407e-002 -2.0752399944351936e+000
    1.4394381023675169e-002 -2.3017414944691246e+000
    1.5414315343772371e-002 -2.7621596745187658e+000
    1.2760905337620823e-002 -1.1416047702872674e+000
    1.5962664321485177e-002 -2.8539470177446442e+000
    1.3659575041061042e-002 -2.3562008080550236e+000
    1.7018195340029459e-002 -1.8763505817679147e+000
    1.5781081985074986e-002 -1.7212776811832067e+000
    1.5646988845384104e-002 -2.2788969976143871e+000
    1.3655066149864795e-002 -2.3869814244749761e+000
    1.2819744653618927e-002 -1.9312233112640602e+000
    1.3082901397858924e-002 -1.3840982851079306e+000
    1.3980433287995222e-002 -1.8729120461484265e+000
    1.5392581974500311e-002 -2.4552023392771023e+000
    1.4109824063372278e-002 -2.5886040002485706e+000
    1.1185364159266685e-002 -1.3831324192053214e+000
    1.4644785753185183e-002 -2.5296426591001873e+000
    1.3887262686703030e-002 -2.4517962273374203e+000
    1.4138413696214958e-002 -1.6969238305168219e+000
    1.4881467295008948e-002 -1.6843340733400962e+000
    1.5527850007794079e-002 -2.3516066178470370e+000
    1.3765313889452015e-002 -2.1040282280027403e+000
    1.4434146035566454e-002 -2.0755500102142586e+000
    1.2262485609540897e-002 -1.5393506935177006e+000
    1.3276929628111132e-002 -1.8493287757555685e+000
    1.5140734462566514e-002 -2.5059597839376755e+000
    1.4250872445942586e-002 -2.1294762009917654e+000
    1.3483287692895807e-002 -2.0346281128579773e+000
    1.3773308057173668e-002 -2.1080047981504300e+000
    1.2968217455134835e-002 -1.7762135174383014e+000
    1.4674884003653106e-002 -1.7952274764468967e+000
    1.4170783264821093e-002 -2.3835257451429075e+000
    1.4652955533753150e-002 -2.1040016040299108e+000
    1.2845620260577091e-002 -1.9942111808975902e+000
    1.5650909110338458e-002 -2.7747322862728936e+000
    1.3409197331645554e-002 -1.2526425173978890e+000
    1.6442289606141119e-002 -2.9914919017306416e+000
    1.3098849408959744e-002 -2.2429596471275399e+000
    1.4916001556251791e-002 -1.5851566320530028e+000
    1.4395180102938738e-002 -1.5789113376239974e+000
    1.4881593984773858e-002 -2.2289320768305734e+000
    1.4186097497296438e-002 -2.3745162860891353e+000
    1.2722160894843565e-002 -1.9239441206585373e+000
    1.3618141554991853e-002 -1.3991883884334406e+000
    1.3803103191029726e-002 -1.8295246440643733e+000
    1.4993653457217326e-002 -2.4620411957498471e+000
    1.3544630066691725e-002 -2.2641354115371515e+000
    1.1643030314056793e-002 -1.4239426074091457e+000
    1.4708743774189285e-002 -2.5842445658818676e+000
    1.3970961783928827e-002 -2.4795352508299464e+000
    1.3619470344984978e-002 -1.5461882027764888e+000
    1.5265208851539779e-002 -1.6639077648178358e+000
    1.5337276993671625e-002 -2.2090791296551697e+000
    1.3171375094949330e-002 -1.9579249078642180e+000
    1.3730408874747566e-002 -2.0597901713600475e+000
    1.2264782697396705e-002 -1.3314102994840644e+000
    1.3177806505997690e-002 -1.8126804949361266e+000
    1.5960014710703459e-002 -2.6528204451640933e+000
    1.5492530432553185e-002 -2.3905835153564703e+000
    1.3755739454231390e-002 -2.0583171470014903e+000
    1.5051923575114328e-002 -2.3439189878358588e+000
    1.3063745394188387e-002 -1.6707078831900926e+000
    1.5532241864914526e-002 -1.9502455466051845e+000
    1.3112852522181103e-002 -2.2047076040627163e+000
    1.3838932503525241e-002 -1.9181529279469511e+000
    1.5366855650643453e-002 -2.5359580394575763e+000
    1.4541022904529485e-002 -2.6170609889729848e+000
    1.3028873911270290e-002 -1.1908390754901046e+000
    1.6896395580254058e-002 -3.1486433163803436e+000
    1.2876071621144488e-002 -2.1921511934998490e+000
    1.5252149845002430e-002 -1.6301158817675376e+000
    1.4882494282232201e-002 -1.5535670420174614e+000
    1.5100654986695916e-002 -2.2966418384210412e+000
    1.3472003131199072e-002 -2.3655340609148774e+000
    1.3043768296843828e-002 -2.0111316752350374e+000
    1.3705823470853641e-002 -1.4898991547455176e+000
    1.5111296124441646e-002 -2.0588301453100386e+000
    1.4745761100039707e-002 -2.3509658447163306e+000
    1.5195454360391344e-002 -2.8654405964153522e+000
    1.1431650445158367e-002 -1.4170800910156591e+000
    1.5033178717298647e-002 -2.7442232571833274e+000
    1.3219737380538702e-002 -2.3426109068169052e+000
    1.4494227255884683e-002 -1.6801225094112997e+000
    1.4211341646013349e-002 -1.6520684663490519e+000
    1.5849400351598160e-002 -2.2936723875487806e+000
    1.3945656834480569e-002 -2.1384889996962926e+000
    1.3726686445097043e-002 -1.9968515809159226e+000
    1.2792202044959065e-002 -1.6176450163742124e+000
    1.3677230310856254e-002 -1.9558439344524443e+000
    1.5272955826297325e-002 -2.5095163417698316e+000
    1.5496100904161817e-002 -2.4585424978947401e+000
    1.3500580457278340e-002 -2.0143616074506907e+000
    1.5269524828940102e-002 -2.4997060451909885e+000
    1.3492873360945156e-002 -1.8946992615069431e+000
    1.4750813588194951e-002 -1.8399181482341835e+000
    1.3760749493786738e-002 -2.3497244246723845e+000
    1.4416840817354046e-002 -2.1054194142543654e+000
    1.4286746548543609e-002 -2.3565988431822680e+000
    1.4681878462394741e-002 -2.6422487272823068e+000
    1.4037072483157631e-002 -1.2075781522316440e+000
    1.6107975191936220e-002 -2.8903076819397557e+000
    1.3809107536982777e-002 -2.4669203442178786e+000
    1.4984747721861584e-002 -1.6152725558182242e+000
    1.5547813658797538e-002 -1.5928735093438078e+000
    1.5537259014888508e-002 -2.3401701619591244e+000
    1.4261288895571402e-002 -2.5865224293601332e+000
    1.3792186712672823e-002 -2.1017760084923087e+000
    1.3321865164941599e-002 -1.3856219978779811e+000
    1.3771613201789918e-002 -1.8691139473318206e+000
    1.4697252246384268e-002 -2.2890970373743498e+000
    1.4478762839354873e-002 -2.6625640485860314e+000
    1.1650009323975877e-002 -1.5227209409176692e+000
    1.4269655309070470e-002 -2.5568051279341155e+000
    1.3170948293237193e-002 -2.3272333914800498e+000
    1.4980625310942975e-002 -1.7908505302270610e+000
    1.4270926782195008e-002 -1.8913734962002451e+000
    1.6975373572026598e-002 -2.6034564601631462e+000
    1.3633219219674208e-002 -2.0271082177520028e+000
    1.4266777318533689e-002 -2.1185371719282609e+000
    1.3286879658119550e-002 -1.6833738366856463e+000
    1.3871113980686542e-002 -1.9572912444192081e+000
    1.4915672931749857e-002 -2.5308582371194674e+000
    1.5010351382344259e-002 -2.4000717951958341e+000
    1.4244460289421732e-002 -2.1552659776800045e+000
    1.3679674068247601e-002 -2.1594125498621519e+000
    1.2846057429084538e-002 -1.8905114516469410e+000
    1.4732094646723872e-002 -1.8925830922824600e+000
    1.2587999279783553e-002 -2.1050631462264708e+000
    1.4130044301681194e-002 -2.1220971533741539e+000
    1.3640339712601684e-002 -2.2972605465973333e+000
    1.7168670509673030e-002 -3.1660936049893693e+000
    1.3338954664041702e-002 -1.1667139012815142e+000
    1.5943665468206320e-002 -2.9158306863771326e+000
    1.3435437860819464e-002 -2.3995692019423562e+000
    1.4992996834570749e-002 -1.6021683006276020e+000
    1.4221736265321231e-002 -1.5559369570720609e+000
    1.4687757560845477e-002 -2.2774184084622067e+000
    1.4340311993029322e-002 -2.5921707295399727e+000
    1.2554035192462181e-002 -2.0644413427604480e+000
    1.3550369706808441e-002 -1.3127297052629201e+000
    1.3817019247011949e-002 -1.9166508532146742e+000
    1.5306591124881690e-002 -2.4135943105417610e+000
    1.4895304580628724e-002 -2.7610102074037632e+000
    1.1483971260921063e-002 -1.6244715346976228e+000
    1.4980670759584017e-002 -2.6798755469922519e+000
    1.3021817044081721e-002 -2.3109384647563695e+000
    1.4357457857251668e-002 -1.7630160612157424e+000
    1.4663183558499753e-002 -1.8100885481659139e+000
    1.6278308009545599e-002 -2.4194087454409630e+000
    1.3661371845452760e-002 -2.0716711438526585e+000
    1.4100919335879786e-002 -2.1644911180575472e+000
    1.3125227104282974e-002 -1.6883417131809331e+000
    1.2346439332121125e-002 -1.6838485509124526e+000
    1.5488165572444512e-002 -2.5088246866431367e+000
    1.5984256763695123e-002 -2.5740869489401699e+000
    1.4482413216670296e-002 -2.3379442402778081e+000
    1.4008310638596826e-002 -2.2459991390550247e+000
    1.3740089877705721e-002 -1.9372000050911986e+000
    1.5390912679394082e-002 -2.0218528956497361e+000
    1.3310604022771818e-002 -2.1892246227453316e+000
    1.4240206143666971e-002 -2.0246408646040286e+000
    1.3545682994329565e-002 -2.2932841309399956e+000
    1.5551373976171080e-002 -2.6879685952590813e+000
    1.2673678863472294e-002 -1.1928044090338006e+000
    1.6137503568995976e-002 -2.9867829522283387e+000
    1.3308732323477086e-002 -2.2818560942619435e+000
    1.4906365553822137e-002 -1.6130343792074866e+000
    1.4906775761008099e-002 -1.5218989897780324e+000
    1.5946813830206023e-002 -2.4639599235871663e+000
    1.4163233748611972e-002 -2.4862769999368952e+000
    1.3454423226175160e-002 -2.1594349278011133e+000
    1.3523349779103364e-002 -1.4261123639274447e+000
    1.4275911055709516e-002 -2.0045758440725443e+000
    1.4695696428922763e-002 -2.3253490316032117e+000
    1.4196045378877987e-002 -2.5844689281435089e+000
    1.1917432565098087e-002 -1.7368333804456562e+000
    1.4206644496816741e-002 -2.4710090328129919e+000
    1.3421431253780798e-002 -2.3512856286484651e+000
    1.4468602788697887e-002 -1.7264258371980734e+000
    1.3680915682400804e-002 -1.7556415074876455e+000
    1.5901513076860972e-002 -2.3745376110719225e+000
    1.3014587008424365e-002 -1.9853752481351370e+000
    1.4225984093221927e-002 -1.9726697942601070e+000
    1.3009766669734080e-002 -1.6562155735386468e+000
    1.2794454123091277e-002 -1.6881571412412104e+000
    1.5066839740486029e-002 -2.4604149296213689e+000
    1.4940139206023077e-002 -2.4291006333526188e+000
    1.4880497368553635e-002 -2.3648417095824739e+000
    1.4330284564765551e-002 -2.3684775877876394e+000
    1.2857705098831367e-002 -1.8537239167765156e+000
    1.6064513252130611e-002 -2.1446125191594363e+000
    1.3138168986721835e-002 -2.2416635884455611e+000
    1.4882572417445684e-002 -2.0499916695452680e+000
    1.4541370229902513e-002 -2.4610461260208343e+000
    1.5773549236290815e-002 -2.7927068922852891e+000
    1.2506619234519090e-002 -1.2141148027999256e+000
    1.5888692234002161e-002 -2.9259026748914980e+000
    1.2468563482143485e-002 -2.1548448489028864e+000
    1.5232809423199590e-002 -1.6618148813520575e+000
    1.4636705932952743e-002 -1.5745029832209110e+000
    1.5481635730547401e-002 -2.3852900206403946e+000
    1.4451474596646042e-002 -2.5428975272198340e+000
    1.2617253352035581e-002 -1.9959793844400733e+000
    1.2839116193709213e-002 -1.4513194288522298e+000
    1.3713709723208243e-002 -1.8629312786215995e+000
    1.5981175239962325e-002 -2.6937158710025382e+000
    1.3282816543817919e-002 -2.2969679475523352e+000
    1.1043318478808605e-002 -1.6369265574060690e+000
    1.4811326114800887e-002 -2.6394605988026001e+000
    1.3503873825347462e-002 -2.4880887523202699e+000
    1.5165868302335534e-002 -1.9702148021211894e+000
    1.4343817134911903e-002 -1.7084283086409793e+000
    1.7144892957342082e-002 -2.5394443951983181e+000
    1.2975777636403486e-002 -2.0845586772882201e+000
    1.4780597099068439e-002 -2.2238229479831748e+000
    1.2650080361162094e-002 -1.5893420409315597e+000
    1.3501437794037015e-002 -1.8120429679352565e+000
    1.5499378548610929e-002 -2.4774895533368535e+000
    1.5104101956876658e-002 -2.3873711376394322e+000
    1.4521380051753114e-002 -2.3870728575073494e+000
    1.3429656638481219e-002 -2.1678450182650573e+000
    1.3390746916694169e-002 -1.9660592195244082e+000
    1.5307918194310681e-002 -2.1137683706643999e+000
    1.3368244953003715e-002 -2.3156028299427938e+000
    1.4178039094691407e-002 -1.8489738317154780e+000
    1.4025218236339888e-002 -2.2709165861007001e+000
    1.4848019585781946e-002 -2.6727260144384490e+000
    1.2865619267941081e-002 -1.3022150969034365e+000
    1.6023487564280431e-002 -2.7870186036805098e+000
    1.3813438757275072e-002 -2.4255631044510730e+000
    1.4510037010947758e-002 -1.6435841367567436e+000
    1.5277014209920068e-002 -1.6704566315535931e+000
    1.4024718390884192e-002 -2.0404406956693064e+000
    1.4125314063953934e-002 -2.5704147898045062e+000
    1.3121949034523454e-002 -2.0919302749704722e+000
    1.2452570580335772e-002 -1.4042348757758638e+000
    1.3764072496218251e-002 -1.9795794932338782e+000
    1.5391633338598207e-002 -2.5928061449609712e+000
    1.3392518170383614e-002 -2.2570857289819850e+000
    1.1633866000411015e-002 -1.7650513700290245e+000
    1.4430899226936749e-002 -2.4902921765950516e+000
    1.2178733377650767e-002 -2.1140927951004218e+000
    1.3743196356273092e-002 -1.7476764699727283e+000
    1.4889900262113370e-002 -1.9200526387995189e+000
    1.6448756386060505e-002 -2.4422747954102948e+000
    1.2862800583606716e-002 -2.0674808138050524e+000
    1.3804437625173620e-002 -2.0338538101089134e+000
    1.2966637010558555e-002 -1.7473984109173273e+000
    1.3054427486114297e-002 -1.6867770804002573e+000
    1.5568629369287325e-002 -2.5694292926301032e+000
    1.4654418554368708e-002 -2.3858207540876388e+000
    1.4237655912597399e-002 -2.2543746175829917e+000
    1.4512029179785136e-002 -2.4310067547670067e+000
    1.3156602778554497e-002 -1.9634036879862826e+000
    1.4506841673181201e-002 -1.9938042008490542e+000
    1.3879229767034006e-002 -2.5448338846177241e+000
    1.5888761562264892e-002 -2.2238087224341081e+000
    1.4312338760322969e-002 -2.3556519339629349e+000
    1.4200883163038303e-002 -2.3984502724418193e+000
    1.2612198427270609e-002 -1.3086557223674065e+000
    1.4900448844656772e-002 -2.5339041063052430e+000
    1.2974940772329401e-002 -2.2125878167036164e+000
    1.4712605915736613e-002 -1.7663300768837122e+000
    1.4566469008517309e-002 -1.7151208009250880e+000
    1.6258834895234518e-002 -2.4275343767190423e+000
    1.4576271971290246e-002 -2.6323127594375597e+000
    1.2667529325681515e-002 -2.0461578619121670e+000
    1.3467837075506257e-002 -1.5535898279767328e+000
    1.3594830402176662e-002 -1.9607521781717130e+000
    1.5922193594289157e-002 -2.5607310131170933e+000
    1.3137900113825091e-002 -2.2057804407772670e+000
    1.1144624697810751e-002 -1.7058086391632443e+000
    1.4045044936449886e-002 -2.3866432748399591e+000
    1.2927822681436914e-002 -2.0854732622271315e+000
    1.3635550919456126e-002 -1.6758849610618214e+000
    1.4438727210984286e-002 -1.8446276163544146e+000
    1.7363568859605081e-002 -2.5394219457172431e+000
    1.2633757818821546e-002 -2.0084867430188744e+000
    1.5199264148853985e-002 -2.3455842195937002e+000
    1.2705550416199583e-002 -1.7926825773345598e+000
    1.2786902259224518e-002 -1.6425486335432737e+000
    1.4921839603969013e-002 -2.3955355501994031e+000
    1.5332216581762606e-002 -2.5467663532117788e+000
    1.4595716684779492e-002 -2.3698578657186968e+000
    1.4666052447145812e-002 -2.4514306665404226e+000
    1.3397131537999370e-002 -1.8811805534607449e+000
    1.3738909763160272e-002 -1.9493986408395185e+000
    1.4443247004770272e-002 -2.5133656996134404e+000
    1.4134454500549872e-002 -2.0573483773022589e+000
    1.5178190202449286e-002 -2.7084637183481726e+000
    1.5312744072365349e-002 -2.6211164311869375e+000
    1.2824287668885881e-002 -1.2683932964954185e+000
    1.6281005337025537e-002 -2.9387214633331094e+000
    1.3057130421559641e-002 -2.3275785768699122e+000
    1.4280945052129776e-002 -1.7432273593633079e+000
    1.4336721151348233e-002 -1.7025652851734436e+000
    1.5199280242328672e-002 -2.3897490563230210e+000
    1.4121306368315434e-002 -2.5347744931126206e+000
    1.2639208033511715e-002 -2.1279511080865139e+000
    1.3794918386880597e-002 -1.5881782985073700e+000
    1.3736762129952685e-002 -2.1702557858421914e+000
    1.5292167477522833e-002 -2.5526025779425057e+000
    1.3299311239653220e-002 -2.2584447036804445e+000
    1.1581026101633137e-002 -1.8081198696344223e+000
    1.3792724786779191e-002 -2.3610846047501513e+000
    1.3545458428426057e-002 -2.3073183381887299e+000
    1.4550386853595221e-002 -1.9587245769414767e+000
    1.4092478618525075e-002 -1.7956166506437368e+000
    1.5935389953262897e-002 -2.2559200377169173e+000
    1.2654607996584856e-002 -1.9916946919069387e+000
    1.4152650931113786e-002 -2.1339052570579340e+000
    1.2763975688630120e-002 -1.7380280229351346e+000
    1.3092423519615199e-002 -1.7955531500290045e+000
    1.4739171713611303e-002 -2.3811131903339060e+000
    1.5462048584335045e-002 -2.5356041672911211e+000
    1.4080176802273102e-002 -2.2795806242880152e+000
    1.4452791571191457e-002 -2.4103241676422016e+000
    1.3380098053838893e-002 -1.7866890934559536e+000
    1.3879178110769778e-002 -1.9324442322895119e+000
    1.4293328483546398e-002 -2.5377804722536630e+000
    1.3955262180953203e-002 -1.9801741742429209e+000
    1.6109667634404336e-002 -2.8442513190076095e+000
    1.5495706532220443e-002 -2.8388134367027851e+000
    1.2683049416370941e-002 -1.3094543908546532e+000
    1.5886285620328778e-002 -2.7720685836050367e+000
    1.2790323670427749e-002 -2.3139827240415536e+000
    1.4833378188829719e-002 -1.7564367928706479e+000
    1.3603988688951499e-002 -1.6206885191437554e+000
    1.4859140729658882e-002 -2.3875337121288567e+000
    1.5007592688086274e-002 -2.7199594236857694e+000
    1.2975904103803731e-002 -2.2224840195570499e+000
    1.2825399882202670e-002 -1.5238000104488127e+000
    1.3632115567474935e-002 -2.0256566393514004e+000
    1.5404158677466412e-002 -2.6362506003297379e+000
    1.3480223806441182e-002 -2.3245148151562658e+000
    1.1730649192297852e-002 -1.8199450519117213e+000
    1.2927902538014900e-002 -2.1828045218630487e+000
    1.2530592629470615e-002 -2.1097341123818691e+000
    1.4651298274232642e-002 -1.9157386454574414e+000
    1.3638309488544477e-002 -1.7770717263573454e+000
    1.4955791057677066e-002 -2.1045290649994577e+000
    1.3280267133949787e-002 -2.1208586612917810e+000
    1.4693406586235554e-002 -2.2970692296481583e+000
    1.3209901319096655e-002 -1.7608798458355843e+000
    1.2976836152101309e-002 -1.6962887656821761e+000
    1.4430612252953227e-002 -2.1402201372491074e+000
    1.4802006389730685e-002 -2.2526186724105148e+000
    1.4080928131978115e-002 -2.2293238328061795e+000
    1.3990414595500232e-002 -2.2398653767395871e+000
    1.2833075385917389e-002 -1.7287578442095826e+000
    1.4897717687470962e-002 -2.1979927145898128e+000
    1.3728324158317450e-002 -2.4182443004876188e+000
    1.3888494842373077e-002 -2.0256369727601133e+000
    1.4355455615198959e-002 -2.4333294793074192e+000
    1.6022100644201873e-002 -2.9014244033244685e+000
    1.2743118498451080e-002 -1.4443616866966609e+000
    1.5111229028261617e-002 -2.5559804388580734e+000
    1.2742831645782590e-002 -2.2484726438983378e+000
    1.3537519889421095e-002 -1.6753432947596907e+000
    1.3395937433289975e-002 -1.7274061320227421e+000
    1.5837368045594290e-002 -2.4825074411469048e+000
    1.5137767509837462e-002 -2.7873675908114044e+000
    1.3142339101596118e-002 -2.2387244529618897e+000
    1.3067912381620179e-002 -1.4850956426579021e+000
    1.3843062069103115e-002 -2.1240640627031055e+000
    1.4369167647031965e-002 -2.3765006714007866e+000
    1.3960263189041047e-002 -2.4860126458973428e+000
    1.1604711476032745e-002 -1.7842888600593458e+000
    1.3902132929629564e-002 -2.3705453667173346e+000
    1.2376004209660531e-002 -2.1118276072206847e+000
    1.4186924208942920e-002 -1.8610091912308901e+000
    1.3184993571320493e-002 -1.8002643722352432e+000
    1.5771403776769985e-002 -2.0754291181130591e+000
    1.3701451865045828e-002 -2.2216904199171812e+000
    1.4662519052066118e-002 -2.1691567768748259e+000
    1.2204165340278929e-002 -1.6945483574977294e+000
    1.2813909646007718e-002 -1.8044120433186535e+000
    1.4434659109771972e-002 -2.3414620927062333e+000
    1.4343210908310275e-002 -2.3716499236891040e+000
    1.5168928350599610e-002 -2.4274498952167876e+000
    1.3070042748587678e-002 -2.1268590119382318e+000
    1.2799115121132456e-002 -1.7283782847187035e+000
    1.3845269907138465e-002 -2.0160251348116622e+000
    1.3825251346834527e-002 -2.4626612996308634e+000
    1.4947779181096833e-002 -2.1383628550735745e+000
    1.5462658842784485e-002 -2.8185849960588985e+000
    1.4069793382141175e-002 -2.4547099520708970e+000
    1.3783964678670700e-002 -1.3647656583514955e+000
    1.5528876007307039e-002 -2.6963305040687455e+000
    1.2950619647963917e-002 -2.2950656452800056e+000
    1.4939329667417654e-002 -1.7107192394711814e+000
    1.4542911145781611e-002 -1.6582958403731531e+000
    1.4172786755345964e-002 -2.2193796681829814e+000
    1.5768735587274808e-002 -2.9042506788296358e+000
    1.3121011898198564e-002 -2.1603017145278480e+000
    1.3358927829116365e-002 -1.5095588446901493e+000
    1.3191025557446830e-002 -1.9698598165787269e+000
    1.5042758227948431e-002 -2.6467733102075264e+000
    1.4462156553658304e-002 -2.6224710550633725e+000
    1.1244603007250170e-002 -1.7529086687968876e+000
    1.4023085506358550e-002 -2.4220984910704852e+000
    1.3153957097142649e-002 -2.2543690138319641e+000
    1.3041705417533330e-002 -1.5620340394255614e+000
    1.3597368827431061e-002 -1.6946098605875612e+000
    1.4861921085017734e-002 -2.0416976921684360e+000
    1.3614237423224942e-002 -2.2381049977258294e+000
    1.3991567556978850e-002 -2.0084117918734421e+000
    1.2565740365440774e-002 -1.7633224216148251e+000
    1.3169833917200165e-002 -1.6984695808549146e+000
    1.5908200241789169e-002 -2.7063383766892666e+000
    1.5552353328318733e-002 -2.5502403379925318e+000
    1.4557894051401449e-002 -2.3231163818469733e+000
    1.4498482710536083e-002 -2.4933362905813583e+000
    1.2491210451314379e-002 -1.8657704677446578e+000
    1.3397227090561828e-002 -1.9835338997970706e+000
    1.4050530117597049e-002 -2.5185575235792710e+000
    1.4283088448662383e-002 -2.1004868573585660e+000
    1.3436095906355945e-002 -2.3830408989467422e+000
    1.5540861434826286e-002 -2.8520934257669528e+000
    1.1825210107375689e-002 -1.2584651378716039e+000
    1.6442415759437074e-002 -2.8984325113718796e+000
    1.3443377837566073e-002 -2.4729840386527102e+000
    1.4264940704572128e-002 -1.7540329589683050e+000
    1.3178999913338081e-002 -1.6073254727639494e+000
    1.3697310326087269e-002 -2.0960689607337435e+000
    1.4244460289421727e-002 -2.5754775562179448e+000
    1.3224624235454827e-002 -2.2526677982404473e+000
    1.2606218381057355e-002 -1.5368380897440144e+000
    1.3652507532005297e-002 -2.1424576680919647e+000
    1.5273266355332609e-002 -2.6025645869486769e+000
    1.3059404206311092e-002 -2.3086124546934386e+000
    1.1710267072855775e-002 -1.8826856601187403e+000
    1.3505001241378878e-002 -2.2416051227148706e+000
    1.2796486460253720e-002 -2.1144061127825893e+000
    1.4510667278990882e-002 -1.8922716279986278e+000
    1.4852233368293201e-002 -2.0512584529764943e+000
    1.5474663038949787e-002 -2.2282655072585529e+000
    1.3881177818918041e-002 -2.3459961690516984e+000
    1.5435392708126026e-002 -2.4458237267842806e+000
    1.3112797128932450e-002 -1.9675023603233757e+000
    1.2706088286447540e-002 -1.6707800202884824e+000
    1.5058721203995882e-002 -2.4471258552115751e+000
    1.4444794654326043e-002 -2.3887677915295744e+000
    1.3852914898824805e-002 -2.2905025178823548e+000
    1.3433158299865687e-002 -2.2389343453015025e+000
    1.2869117659936993e-002 -1.7875919380633594e+000
    1.4257821394570894e-002 -2.1292472050414459e+000
    1.4319418701221850e-002 -2.6343752793942312e+000
    1.4648482514131931e-002 -1.9944722747574744e+000
    1.3915583010792414e-002 -2.3092136918464967e+000
    1.6186193061758457e-002 -2.9729540489710908e+000
    1.2381908824420041e-002 -1.3250706093600182e+000
    1.5177279196509399e-002 -2.5475906313518610e+000
    1.3234271713769922e-002 -2.4263566712562290e+000
    1.4261659532419388e-002 -1.6928589864981813e+000
    1.4330131295086737e-002 -1.7916644710884835e+000
    1.4960268264204303e-002 -2.3584862918518086e+000
    1.6242916833080327e-002 -3.0202801466844367e+000
    1.2334659870201450e-002 -1.9845782472272455e+000
    1.2815798042888411e-002 -1.5247951715916568e+000
    1.4268045870838172e-002 -2.1984680679316484e+000
    1.4825041442011948e-002 -2.5265165070842142e+000
    1.3604943328222841e-002 -2.3077007205405544e+000
    1.1940379789632959e-002 -1.9710250260520228e+000
    1.4065385657412074e-002 -2.3575149182451236e+000
    1.2765478100258991e-002 -2.1894922521627547e+000
    1.3135247021050905e-002 -1.8365994279211622e+000
    1.3581741990642507e-002 -1.8651504459260675e+000
    1.5145090219245044e-002 -2.0914528198876337e+000
    1.2761506715915092e-002 -2.0879951905023075e+000
    1.4138965883239559e-002 -2.1942104054578548e+000
    1.2920099163152581e-002 -1.6538444712122147e+000
    1.2434955681499013e-002 -1.6074252710951058e+000
    1.4552363113113835e-002 -2.2404171477256143e+000
    1.4473381084400180e-002 -2.4000886221570057e+000
    1.3511590776367809e-002 -2.1341557631272954e+000
    1.4489043037737190e-002 -2.4211995862894273e+000
    1.3760884606723691e-002 -1.8207179321873967e+000
    1.3560617515871983e-002 -1.9721658073916488e+000
    1.3597219852321029e-002 -2.4175101496323883e+000
    1.5086436426299473e-002 -2.0658360279746080e+000
    1.3674642642246651e-002 -2.3761970698010599e+000
    1.5084540628509880e-002 -2.6900764120842622e+000
    1.1714707321703896e-002 -1.2987705517329051e+000
    1.5396683267439563e-002 -2.5993022840608524e+000
    1.3000670181959618e-002 -2.3247365063707455e+000
    1.4339862700165256e-002 -1.7266788009076763e+000
    1.4246127659717828e-002 -1.6850794666836237e+000
    1.4482097144149267e-002 -2.1820497591470680e+000
    1.4849857453375642e-002 -2.6503695585952549e+000
    1.2940917970193359e-002 -2.0260444962112167e+000
    1.2959253998066772e-002 -1.5541025377903852e+000
    1.4343463690723597e-002 -2.2049091129017886e+000
    1.4397336209406133e-002 -2.5118552573343900e+000
    1.3116706337296630e-002 -2.2637249020451105e+000
    1.0927255083040051e-002 -1.7362194187496969e+000
    1.3826208749897827e-002 -2.3344785351494153e+000
    1.2869476839922669e-002 -2.1036589836724704e+000
    1.3277520730842278e-002 -1.7403141477931214e+000
    1.3258902627760293e-002 -1.8249406255708958e+000
    1.5012857345594110e-002 -2.1194818381457639e+000
    1.2505376399031716e-002 -2.0355279061957234e+000
    1.4119257473420889e-002 -2.1319294381672576e+000
    1.2662382269722078e-002 -1.7310883494073384e+000
    1.3526461848551831e-002 -1.6542862840778889e+000
    1.4014239954878219e-002 -2.2673483109220194e+000
    1.3896631128999489e-002 -2.2380524433253681e+000
    1.3909068877172000e-002 -2.2176464872553292e+000
    1.3701428326570089e-002 -2.3175204823930717e+000
    1.3846276906510835e-002 -1.9001707341368366e+000
    1.3590853262463847e-002 -1.9582154408999994e+000
    1.3506753127408372e-002 -2.4877188135164987e+000
    1.5697170233901561e-002 -2.0778693064620697e+000
    1.4248589814245776e-002 -2.4711012679517244e+000
    1.4967379065684442e-002 -2.6868939986081188e+000
    1.1781051887987516e-002 -1.2396939100576196e+000
    1.5658510883388779e-002 -2.7218841501686195e+000
    1.3285216817130650e-002 -2.4850736124043831e+000
    1.3882851640205274e-002 -1.7133752732620009e+000
    1.4150447915683232e-002 -1.5237673997204895e+000
    1.4278832900658685e-002 -2.2083801617857617e+000
    1.4442353240571951e-002 -2.5984200538662368e+000
    1.2180008991327236e-002 -1.8610377071581834e+000
    1.3861162209481373e-002 -1.5921854991290936e+000
    1.3330642936148600e-002 -1.9097627188581332e+000
    1.5716017393377541e-002 -2.7582483637454995e+000
    1.3337734450667075e-002 -2.3263972822952415e+000
    1.1030788284586484e-002 -1.6354369275042195e+000
    1.3205831093950089e-002 -2.1668567853323104e+000
    1.2818330552347013e-002 -2.1217185582034825e+000
    1.3525566438865299e-002 -1.6416280554993898e+000
    1.3382832456260286e-002 -1.7131512525397194e+000
    1.4950002960952197e-002 -2.1333654225278784e+000
    1.3233995681378714e-002 -2.2109595451690036e+000
    1.4577735087797397e-002 -2.2575242531797359e+000
    1.2966589640128329e-002 -1.7865799425823483e+000
    1.3468518292735465e-002 -1.6427851062055951e+000
    1.4240826322034283e-002 -2.3378689878672945e+000
    1.3784606359204473e-002 -2.1212977563886883e+000
    1.3771892295278464e-002 -2.1738166882969541e+000
    1.3907392488587723e-002 -2.2577879072306133e+000
    1.3054861188932216e-002 -1.7402129964846647e+000
    1.3423176194506040e-002 -1.8752177143724937e+000
    1.3438439769457494e-002 -2.4200390284831372e+000
    1.5344987558644467e-002 -2.1175230331620551e+000
    1.4190933891172118e-002 -2.4478572577055728e+000
    1.5568764881422181e-002 -2.7925174608977588e+000
    1.2906873129856531e-002 -1.3697777633313850e+000
    1.5760505451311458e-002 -2.7914481905181145e+000
    1.3526410976482406e-002 -2.5691163247998916e+000
    1.4380890438038189e-002 -1.7166788491229255e+000
    1.3785951002047866e-002 -1.6957485618685657e+000
    1.4460575505598396e-002 -2.1753525752255189e+000
    1.4868961091126554e-002 -2.7428276892764782e+000
    1.2753990469832641e-002 -1.9810489974780601e+000
    1.2989944716967679e-002 -1.4751525553307574e+000
    1.3714736575157462e-002 -1.9795698386620335e+000
    1.5494156439285374e-002 -2.6422701447794656e+000
    1.3045155387656113e-002 -2.2700019836231378e+000
    1.0574556293169446e-002 -1.5505236902534509e+000
    1.3725864256564073e-002 -2.2740706881069657e+000
    1.3635136028552023e-002 -2.2958539041853037e+000
    1.3574704678796637e-002 -1.6537761050073969e+000
    1.4413397587544955e-002 -1.7841383980449397e+000
    1.5793276693063664e-002 -2.1769277112866812e+000
    1.2424951198979328e-002 -2.0835262610555114e+000
    1.4000194897896926e-002 -2.0844734625757644e+000
    1.2552338612782330e-002 -1.6518877614421545e+000
    1.3022734039262867e-002 -1.7726834968334377e+000
    1.4779019547887727e-002 -2.3752347583380224e+000
    1.3997413880576584e-002 -2.1830522214968133e+000
    1.4154397113469925e-002 -2.2676130531174010e+000
    1.5395732859426482e-002 -2.5768180214218979e+000
    1.2567758482331938e-002 -1.6990213050503633e+000
    1.4332668529912274e-002 -1.9580813989948485e+000
    1.3940227337721971e-002 -2.5313129474080149e+000
    1.4830600378662986e-002 -2.0298972307173333e+000
    1.4217921701181612e-002 -2.4013279868756787e+000
    1.5519724837788419e-002 -2.7944988984308914e+000
    1.2273167177928696e-002 -1.2220665296112001e+000
    1.5573891725144664e-002 -2.6659906984826809e+000
    1.3177117077724849e-002 -2.3860830779520210e+000
    1.5013313328519606e-002 -1.7270314765573720e+000
    1.4177912428658042e-002 -1.5764263297064558e+000
    1.5413992006332573e-002 -2.2536968979036702e+000
    1.5254671412637128e-002 -2.7708415657565051e+000
    1.3003651688490134e-002 -2.0500979311998502e+000
    1.2634917246516495e-002 -1.4742842607143665e+000
    1.3591388842722721e-002 -1.8391414335677627e+000
    1.4779614526730270e-002 -2.4795266637677820e+000
    1.3501639704938544e-002 -2.4377960578361257e+000
    1.0846294093253279e-002 -1.6155555051900758e+000
    1.3977186821588846e-002 -2.2750977593651753e+000
    1.2766394880397616e-002 -2.2619214751424486e+000
    1.4162277690864778e-002 -1.7886956723562213e+000
    1.3141042369300948e-002 -1.5921832946226910e+000
    1.5568246611751548e-002 -2.2456330834862066e+000
    1.2744128752160758e-002 -1.9565069663178354e+000
    1.5788104858003166e-002 -2.4271579868370199e+000
    1.2847302085870999e-002 -1.8092570031930220e+000
    1.3360647802284832e-002 -1.7777826417362443e+000
    1.5663639511240734e-002 -2.4879080757020700e+000
    1.4838475930898015e-002 -2.2879281165896863e+000
    1.4264956248654573e-002 -2.3128249064485282e+000
    1.3988650245759253e-002 -2.2564469993645551e+000
    1.3064741203766108e-002 -1.8443059665983155e+000
    1.4248766598636185e-002 -1.9431359649817914e+000
    1.3693208992905907e-002 -2.4329028711229101e+000
    1.5013759743256510e-002 -2.2397193145884655e+000
    1.3685126173837825e-002 -2.2004162317956353e+000
    1.5904711343303641e-002 -2.8852029971827435e+000
    1.2858373646096702e-002 -1.2015435818185918e+000
    1.5801691768337442e-002 -2.7807466025214267e+000
    1.3152584134931715e-002 -2.3488323167632221e+000
    1.5432124003787566e-002 -1.8095880074885786e+000
    1.4047686960138854e-002 -1.6502130042896450e+000
    1.4961886848669418e-002 -2.2395450964650010e+000
    1.6060508794695692e-002 -2.9636099978656523e+000
    1.2816786075869061e-002 -2.0188574200506419e+000
    1.2548878716868271e-002 -1.4149557913197690e+000
    1.3655953611567762e-002 -2.0038594596796626e+000
    1.4522289325237678e-002 -2.4509590411744187e+000
    1.4224859448019812e-002 -2.5982496051777524e+000
    1.0929958344602838e-002 -1.5924342088178303e+000
    1.4866616133583596e-002 -2.6577380031254805e+000
    1.3842598475017625e-002 -2.5021265776842969e+000
    1.3947965765876301e-002 -1.7972728776318607e+000
    1.4038135025572549e-002 -1.7310580279311574e+000
    1.4570018220461094e-002 -2.0763085409613753e+000
    1.3241871905805277e-002 -2.1096508924598774e+000
    1.4846286173730365e-002 -2.1552683555874896e+000
    1.2430110937338883e-002 -1.7178413315402334e+000
    1.3429900650772689e-002 -1.6524746645184085e+000
    1.5099266128154151e-002 -2.4959086909838812e+000
    1.5246688356083071e-002 -2.3238494169396611e+000
    1.3618732755946703e-002 -2.1652271889426817e+000
    1.4171657636741296e-002 -2.2631349931562701e+000
    1.2800797582934374e-002 -1.7975164428124957e+000
    1.3528301916548318e-002 -1.8913317651663244e+000
    1.3619460637549071e-002 -2.4071640040165896e+000
    1.4635499817757566e-002 -2.0336026996774135e+000
    1.3307491872335663e-002 -2.2127401763278134e+000
    1.5486935008816543e-002 -2.7809372964164907e+000
    1.2609727791762719e-002 -1.2639150489943498e+000
    1.6301620965729478e-002 -2.9378237917072143e+000
    1.2873163527596647e-002 -2.3344051705793456e+000
    1.4537574725709953e-002 -1.6965349704903516e+000
    1.3999189720103531e-002 -1.6683145482552268e+000
    1.4585404854465292e-002 -2.2507710591249022e+000
    1.4926965071259691e-002 -2.5932284707964546e+000
    1.3642403992297028e-002 -2.1486786287867821e+000
    1.3658881607168364e-002 -1.4202960391187236e+000
    1.3760851149816187e-002 -1.8980800685979793e+000
    1.4507921630806728e-002 -2.3647106262568811e+000
    1.3146875061322158e-002 -2.3144343163509808e+000
    1.0872585264162788e-002 -1.5484373513711835e+000
    1.3272247374515465e-002 -2.2640979326770663e+000
    1.2386467239036053e-002 -2.0827844662439126e+000
    1.4600355784912445e-002 -1.6719840766355567e+000
    1.3999584118284994e-002 -1.7978577026570883e+000
    1.5284832965298516e-002 -2.1403861095739689e+000
    1.3809763465181516e-002 -2.0219028131188534e+000
    1.5006869559955440e-002 -2.2172649774834161e+000
    1.2338071532528874e-002 -1.7577639243342804e+000
    1.3141589553812675e-002 -1.5685947309092518e+000
    1.4697727059904419e-002 -2.4189192579033807e+000
    1.4268368216990662e-002 -2.1692675812564803e+000
    1.3599257511419743e-002 -2.1183865631261010e+000
    1.4523884038090219e-002 -2.4669623921142798e+000
    1.3101164148313384e-002 -1.8454445387804770e+000
    1.4175571169866204e-002 -1.9307915465089429e+000
    1.3371835081394091e-002 -2.4217879091858188e+000
    1.4515398182988516e-002 -1.9778036435332018e+000
    1.3524047356804370e-002 -2.2074250630161800e+000
    1.4735252230055843e-002 -2.5330717208589886e+000
    1.2331034307561163e-002 -1.2347475686637912e+000
    1.5662237750695193e-002 -2.7696927213465483e+000
    1.2944698816162956e-002 -2.3759994677067109e+000
    1.4463921540294789e-002 -1.7615449333685687e+000
    1.5306856334050583e-002 -1.7153033284118573e+000
    1.5136729103026403e-002 -2.2203899735350507e+000
    1.4172378855152500e-002 -2.5440994753760422e+000
    1.3439389045929071e-002 -2.1590378502285055e+000
    1.3208696012885917e-002 -1.4718156440580714e+000
    1.4311132945507916e-002 -2.0775789722170406e+000
    1.5301145376443540e-002 -2.6015347394482116e+000
    1.3473183575069813e-002 -2.3438848359429785e+000
    1.1168135629926908e-002 -1.6475481862059951e+000
    1.3156027713101126e-002 -2.2204451218000676e+000
    1.1887806184394853e-002 -1.9371840611148323e+000
    1.3481099502563000e-002 -1.6183311002854517e+000
    1.3365393766134243e-002 -1.7049044792456021e+000
    1.4679875726348605e-002 -2.0430309267819937e+000
    1.4034780585008370e-002 -2.1507521536492824e+000
    1.4492329916603265e-002 -2.2068597945227526e+000
    1.3507579693127117e-002 -1.8879093884427336e+000
    1.2711158865804510e-002 -1.6876888096325664e+000
    1.3952981274578967e-002 -2.2548017739719608e+000
    1.3825876786859885e-002 -2.1149750962565941e+000
    1.4453436774147980e-002 -2.3119878057669045e+000
    1.3708323575505511e-002 -2.1854114073483673e+000
    1.3362900952262566e-002 -1.7796414534868792e+000
    1.3353605352400053e-002 -1.8602314122857295e+000
    1.2939108352091314e-002 -2.2592402022104330e+000
    1.4070056999086705e-002 -1.8887488181607335e+000
    1.4962038553288010e-002 -2.6115407070400152e+000
    1.5815395375297386e-002 -2.8931629939877355e+000
    1.2687707271113265e-002 -1.1583876738526411e+000
    1.6058422534778342e-002 -2.8793643739442834e+000
    1.3171858611552912e-002 -2.3394684433963699e+000
    1.3895992725355223e-002 -1.6370251430064306e+000
    1.4690722119650846e-002 -1.6888617378996387e+000
    1.4489691934464397e-002 -2.1864945129106776e+000
    1.5014562272311228e-002 -2.7429102844467228e+000
    1.3384558387109651e-002 -2.1531292925397061e+000
    1.3136096436118573e-002 -1.6196077122598862e+000
    1.3367245023929941e-002 -1.9334977302391108e+000
    1.5759959823128812e-002 -2.8090377278080090e+000
    1.3815267677072382e-002 -2.4474514204804674e+000
    1.0991531156755141e-002 -1.6994739090202908e+000
    1.5123406591516857e-002 -2.6786913830596695e+000
    1.3581987079704339e-002 -2.3557202034909417e+000
    1.3107302074431221e-002 -1.7064250934012293e+000
    1.4657783576342686e-002 -1.7163450246587488e+000
    1.4946602323926148e-002 -2.0383844102652171e+000
    1.3166085705521620e-002 -2.0590295145024089e+000
    1.3899371888835390e-002 -2.0501573536032200e+000
    1.3069825788974594e-002 -1.7442408616819316e+000
    1.2424159857355264e-002 -1.5751073774713729e+000
    1.4094314396080394e-002 -2.2448327745623824e+000
    1.4357677776840319e-002 -2.2763300466414949e+000
    1.3527614224117608e-002 -2.1805762595154023e+000
    1.4950027093086557e-002 -2.5654246491736532e+000
    1.3647359775540820e-002 -1.9414885654015213e+000
    1.4081599088340051e-002 -2.0437094143544194e+000
    1.2800517401681045e-002 -2.2315568670263954e+000
    1.5436787624303172e-002 -2.1808750515890538e+000
    1.3333488434347816e-002 -2.2326185633957953e+000
    1.5260878377006896e-002 -2.7842624772272586e+000
    1.1763818943238051e-002 -1.1848779857828105e+000
    1.5727505579243777e-002 -2.6887918288337151e+000
    1.3789772046129018e-002 -2.5897958001077299e+000
    1.5219049702703064e-002 -1.7964397168518444e+000
    1.4626563116053152e-002 -1.7076512437992055e+000
    1.3917525569809781e-002 -2.0627319286188075e+000
    1.3605328846823412e-002 -2.3754904166553676e+000
    1.2971029643310832e-002 -2.0440180879583987e+000
    1.2765341571336025e-002 -1.4180876114468619e+000
    1.3952635862824183e-002 -2.0163109114654594e+000
    1.4566229052609120e-002 -2.4515772730488514e+000
    1.3356689631807138e-002 -2.3116719561093766e+000
    1.1086046388519762e-002 -1.6537917645807370e+000
    1.4595494041642872e-002 -2.4985864077732414e+000
    1.2443027993613942e-002 -1.9924052935107837e+000
    1.3546544732998593e-002 -1.6798468054736755e+000
    1.4800375845004749e-002 -1.8202817803150841e+000
    1.5867216501759977e-002 -2.3334504889893797e+000
    1.3191878719302150e-002 -2.0636495609894996e+000
    1.5153071022010888e-002 -2.3048662861757561e+000
    1.3048543262675214e-002 -1.9242251798025050e+000
    1.3063597590585970e-002 -1.7107506800294026e+000
    1.4886541483629194e-002 -2.5056530407195203e+000
    1.5282669040807219e-002 -2.4859808306379740e+000
    1.3396188516045123e-002 -2.1458461304618281e+000
    1.4455937472303584e-002 -2.4942917000822487e+000
    1.3352748313673585e-002 -1.8975738992431683e+000
    1.3765951157080323e-002 -1.8377544794702232e+000
    1.4607903110767638e-002 -2.7091167869091404e+000
    1.5951495807089738e-002 -2.3630368649780435e+000
    1.3384346919879849e-002 -2.1742871571344815e+000
    1.5945193276019592e-002 -2.8307147285289225e+000
    1.1423709767739357e-002 -1.2252563376443113e+000
    1.6095922467182829e-002 -2.8869825380722092e+000
    1.3783023297144597e-002 -2.6503988076892555e+000
    1.4971762022290501e-002 -1.8218970852013952e+000
    1.5783089600740277e-002 -1.7135174276537026e+000
    1.5029124186098482e-002 -2.1575142720488039e+000
    1.4057338239207144e-002 -2.5321951948225134e+000
    1.3104126761460697e-002 -2.0874145923964589e+000
    1.2827905937038963e-002 -1.3164994798606708e+000
    1.3920786000359472e-002 -1.8899013749488025e+000
    1.4957784097703040e-002 -2.4572315320504381e+000
    1.4667699866056689e-002 -2.6212809405072863e+000
    1.1196255519485700e-002 -1.6609645063157035e+000
    1.5199923156138303e-002 -2.7752526362582519e+000
    1.2819870157397375e-002 -2.1370723552381423e+000
    1.3487460989427822e-002 -1.6429226091899691e+000
    1.4612850414014663e-002 -1.9407488999857472e+000
    1.6516511158586388e-002 -2.4053545750621308e+000
    1.3401105986435921e-002 -2.0170153521362333e+000
    1.5230060544777472e-002 -2.3005852567361078e+000
    1.2912756539647009e-002 -1.8035534009070302e+000
    1.3461426959512902e-002 -1.7377206490624546e+000
    1.4445661332124314e-002 -2.2446150099899165e+000
    1.4799220103440761e-002 -2.3284928474974769e+000
    1.3609263826319652e-002 -2.0842587550008549e+000
    1.4409803661443199e-002 -2.3795389112929870e+000
    1.3156161246388808e-002 -1.7322278974411929e+000
    1.3554038142170214e-002 -1.9414653634420811e+000
    1.4010793316640223e-002 -2.4591277402923035e+000
    1.4076566411234316e-002 -1.9425661647503356e+000
    1.3535064306249582e-002 -2.2702062581665619e+000
    1.4508368385367012e-002 -2.6123929318785009e+000
    1.2001608990215011e-002 -1.2004942770490070e+000
    1.6208737532212220e-002 -2.9451276096029599e+000
    1.2715276775958195e-002 -2.3196903264939732e+000
    1.4794397756896739e-002 -1.7428622468610853e+000
    1.5180957085363374e-002 -1.6748812597679514e+000
    1.4383781706080167e-002 -2.2123055362934965e+000
    1.5163822572635910e-002 -2.8040435240565902e+000
    1.3291638734200490e-002 -2.0960175859460053e+000
    1.2593191175917010e-002 -1.5061456646396743e+000
    1.3557602724175638e-002 -1.9412980700716829e+000
    1.5401557302468049e-002 -2.6803843558728562e+000
    1.4248698384081649e-002 -2.4657372553653296e+000
    1.1017315372511244e-002 -1.5975719363217555e+000
    1.3312828886434988e-002 -2.1790142480674870e+000
    1.2264638664532496e-002 -1.9731759504788697e+000
    1.4008185964545079e-002 -1.7168588364657167e+000
    1.4345900167269780e-002 -1.6667545011006273e+000
    1.4785994375837552e-002 -1.9849376005429922e+000
    1.3531806612153949e-002 -2.1533614922140982e+000
    1.4816235308455375e-002 -2.1940375119271001e+000
    1.3022915941403390e-002 -1.7818966484490228e+000
    1.3439150509307097e-002 -1.9276968166655553e+000
    1.4844823953224612e-002 -2.3595847673650518e+000
    1.5248352191907000e-002 -2.3541761522949751e+000
    1.4465795176065274e-002 -2.3466734396728111e+000
    1.4034254548656824e-002 -2.1367152550330015e+000
    1.2421523735073174e-002 -1.6982983284452824e+000
    1.3261323968684813e-002 -1.7548415311672421e+000
    1.3630766033058208e-002 -2.4635337810413866e+000
    1.4966899471094551e-002 -2.0138794732772776e+000
    1.3112832097578700e-002 -2.1776771660717782e+000
    1.6846287925085749e-002 -3.1629841484233223e+000
    1.1945417583136825e-002 -1.1562500586166273e+000
    1.4706083778478478e-002 -2.3814051665282814e+000
    1.2996534748249775e-002 -2.3549720963828591e+000
    1.4490770742752856e-002 -1.7082203577248491e+000
    1.4729157098970040e-002 -1.6061327529921332e+000
    1.5442905346597905e-002 -2.3820681497127270e+000
    1.6443689185375185e-002 -3.0321249319543764e+000
    1.3086899239010893e-002 -2.1136796370918041e+000
    1.2242922078482654e-002 -1.3695068669458237e+000
    1.3449890039248808e-002 -1.9153390632003595e+000
    1.4747161573480836e-002 -2.4290213685031099e+000
    1.3109922827978321e-002 -2.2291967110885138e+000
    1.1405140482279632e-002 -1.6637565487983252e+000
    1.5287675517901732e-002 -2.8080062665159282e+000
    1.3455118461333723e-002 -2.3915725558439509e+000
    1.3516298080471596e-002 -1.5675902151551391e+000
    1.6907799434573562e-002 -2.1513296136113240e+000
    1.5744489758119571e-002 -2.2327435864764453e+000
    1.2710046163536177e-002 -1.8942911579399169e+000
    1.4063418006181853e-002 -2.0686506586093163e+000
    1.2612990668914156e-002 -1.7066777818448509e+000
    1.2738332418253066e-002 -1.6358141880439978e+000
    1.5161793268744596e-002 -2.4429018243340601e+000
    1.3623159269303044e-002 -2.0285640994173861e+000
    1.3473440989267295e-002 -2.1075455805211663e+000
    1.5276394694080972e-002 -2.5857844085514392e+000
    1.2450165066005190e-002 -1.7662634173639364e+000
    1.4091339350954579e-002 -2.0062935827014661e+000
    1.3470100431968994e-002 -2.4231213999286445e+000
    1.5199200859186726e-002 -2.0827971577372209e+000
    1.3087605322369814e-002 -2.2587752608041147e+000
    1.5503772969019886e-002 -2.7237545144406439e+000
    1.1634529530458716e-002 -1.2213024193223192e+000
    1.5482276373602867e-002 -2.6626074856736133e+000
    1.2540991076575993e-002 -2.3058005537737918e+000
    1.4582358158431546e-002 -1.6145100874410128e+000
    1.4304702694780562e-002 -1.6734912741482728e+000
    1.5240411004221424e-002 -2.3965546304138190e+000
    1.4341251899364613e-002 -2.4619149093909249e+000
    1.3296361427421237e-002 -2.1888026969773260e+000
    1.3606763170486799e-002 -1.5044544478834905e+000
    1.4424320058114330e-002 -2.0190041325788366e+000
    1.5177201506366263e-002 -2.4608989064711428e+000
    1.4241059689804684e-002 -2.5409215166542625e+000
    1.1111633362531017e-002 -1.6721156271715423e+000
    1.3959648888584414e-002 -2.3326573292824557e+000
    1.2935783169409088e-002 -2.1865785484024496e+000
    1.3917877741566881e-002 -1.6193450752313066e+000
    1.4038454591062993e-002 -1.8391155428436470e+000
    1.5412239861178179e-002 -2.2078889836685587e+000
    1.3166156182228579e-002 -1.8850278387345150e+000
    1.4730485022655998e-002 -2.0494196467909673e+000
    1.2666627218090098e-002 -1.6915576948247211e+000
    1.2512963963413004e-002 -1.5616874191004064e+000
    1.4731867924556158e-002 -2.3547254003189182e+000
    1.4334306483304540e-002 -2.0873935641132149e+000
    1.4353684579613103e-002 -2.3006564100356535e+000
    1.4345014148101605e-002 -2.2823714454860102e+000
    1.3180486430605357e-002 -1.8648923800814290e+000
    1.4108720976844962e-002 -1.7596710329453857e+000
    1.4490491028577529e-002 -2.6379133890246025e+000
    1.5344549469218679e-002 -2.1842113694462277e+000
    1.3124137443841718e-002 -2.0431365525074034e+000
    1.5248956263783767e-002 -2.6982180944528502e+000
    1.2301381758363331e-002 -1.1103363857118278e+000
    1.6055057086962945e-002 -2.9064113065482640e+000
    1.4287159453327914e-002 -2.7458333007134770e+000
    1.4676600994198203e-002 -1.6796554471137943e+000
    1.4022575251158605e-002 -1.4757202387927637e+000
    1.4431465851409486e-002 -2.1118846777332072e+000
    1.5873324712857937e-002 -2.9138133064569551e+000
    1.2895723781021582e-002 -1.9890937503126844e+000
    1.4065096067068095e-002 -1.5029336541888207e+000
    1.3434565344455762e-002 -1.8504621032505093e+000
    1.5275637567613595e-002 -2.4788116539579192e+000
    1.3402023486396979e-002 -2.1923476753164395e+000
    1.1419005428489993e-002 -1.6289211243740975e+000
    1.4416146083613652e-002 -2.4858241230177809e+000
    1.3341290556043099e-002 -2.2054635654756578e+000
    1.3808884404526389e-002 -1.6190916964307192e+000
    1.6635997996517712e-002 -1.9282045900074944e+000
    1.5248407124461696e-002 -2.0626012037021857e+000
    1.2638863552843230e-002 -1.9023596124287869e+000
    1.4326958695754682e-002 -2.0949197381792404e+000
    1.2611967350082676e-002 -1.6293961151454037e+000
    1.2276730672341939e-002 -1.5277709281136636e+000
    1.5313702469272905e-002 -2.3401038895545585e+000
    1.4091756487486258e-002 -2.2329171029782393e+000
    1.4193104205552334e-002 -2.3954017370026350e+000
    1.4627456745110300e-002 -2.3089440472156610e+000
    1.3072045578538111e-002 -1.7891273048492495e+000
    1.3087088685883874e-002 -1.7355660778929665e+000
    1.3464896085543063e-002 -2.3581521344481082e+000
    1.4739802268319066e-002 -2.0816695192385501e+000
    1.3469694464203888e-002 -2.2468946999010329e+000
    1.6634381887718288e-002 -3.0625745319943558e+000
    1.1610125947104467e-002 -1.1265047203676639e+000
    1.4828746252149265e-002 -2.4873574199507931e+000
    1.3389928720100615e-002 -2.4249904797031108e+000
    1.5545220517936024e-002 -1.8653400998161120e+000
    1.4512721594932670e-002 -1.7474123062609763e+000
    1.5406235749614661e-002 -2.2775551849847009e+000
    1.5139755263141800e-002 -2.7587157381988217e+000
    1.2531869270804510e-002 -1.8905021009968093e+000
    1.3157593259926454e-002 -1.5242340814221469e+000
    1.3518530336484817e-002 -1.9730295026099589e+000
    1.5241953440460991e-002 -2.4832529255275499e+000
    1.3568171667540992e-002 -2.3285243943444933e+000
    1.0994747629730415e-002 -1.6512278481916796e+000
    1.5270502444348218e-002 -2.6690293188979961e+000
    1.2741923603651459e-002 -2.1930974175818103e+000
    1.3906746457989186e-002 -1.6239989474829593e+000
    1.5351013155848092e-002 -1.9265521510589354e+000
    1.4730301533264732e-002 -2.0657611200233421e+000
    1.3418428086878426e-002 -2.1137006109741714e+000
    1.4783752421110661e-002 -2.0181464693973954e+000
    1.2032377393801192e-002 -1.5759740524236496e+000
    1.3113467914626255e-002 -1.6647547517618031e+000
    1.4049534516551825e-002 -2.0865119816470190e+000
    1.6122440453098602e-002 -2.4735406419598389e+000
    1.3255495331166529e-002 -2.1180808706389538e+000
    1.4506454370178938e-002 -2.2243230034274375e+000
    1.2382973879679248e-002 -1.6841532419357093e+000
    1.4022582740115787e-002 -1.7890478479264391e+000
    1.3698068015508498e-002 -2.4250907413900515e+000
    1.4423730981812929e-002 -2.0605902344295526e+000
    1.4203148245802192e-002 -2.3671124679212219e+000
    1.5503731562574318e-002 -2.8420923909459153e+000
    1.2151282276620552e-002 -1.0876072708812985e+000
    1.5748528388464678e-002 -2.6782997279315595e+000
    1.3064083131862525e-002 -2.3599540395313436e+000
    1.5738430535199452e-002 -1.8183133411667101e+000
    1.4569676856616122e-002 -1.6542249217703537e+000
    1.5228317398721223e-002 -2.2504069044776918e+000
    1.5176682955219380e-002 -2.7476541341371621e+000
    1.2464616621348101e-002 -2.0089499600107210e+000
    1.2938763868376880e-002 -1.4731501484361986e+000
    1.3759557777044849e-002 -1.7884367430652295e+000
    1.6156137816500674e-002 -2.6454778111307826e+000
    1.3248408051214928e-002 -2.2042406906543590e+000
    1.1135414333235963e-002 -1.6175426587284485e+000
    1.4473757649357254e-002 -2.5645086261719494e+000
    1.2861804826677384e-002 -2.2743243657128582e+000
    1.4060730033354316e-002 -1.5734738058991999e+000
    1.5657334521182981e-002 -1.7659733636058716e+000
    1.4403484728202260e-002 -2.0624189743593617e+000
    1.3209997830419264e-002 -2.0242853897580808e+000
    1.4120259890657468e-002 -1.8233962272135675e+000
    1.3697639142459268e-002 -1.8290914134897276e+000
    1.2858416953210801e-002 -1.5844427112345310e+000
    1.4592911741962571e-002 -2.2685492020199813e+000
    1.4859154500979511e-002 -2.2788989953002243e+000
    1.3130603493148934e-002 -2.0016146069361866e+000
    1.4334947948018064e-002 -2.2301993463127658e+000
    1.3610370224477778e-002 -2.0504022743175776e+000
    1.4001181867172233e-002 -1.7616598162650929e+000
    1.2924126924860195e-002 -2.1475590906809354e+000
    1.4984041596986438e-002 -2.0250932218327171e+000
    1.4588667348975038e-002 -2.3942434564226200e+000
    1.4926277757579679e-002 -2.6579554497983415e+000
    1.1793917152573840e-002 -1.1593420560980083e+000
    1.5710499530444195e-002 -2.7205348353552528e+000
    1.2746666464399132e-002 -2.2851232229983087e+000
    1.4686240782936800e-002 -1.6012897866995424e+000
    1.4865125594425221e-002 -1.6218677863828717e+000
    1.5113791458879162e-002 -2.2143383797420073e+000
    1.4624889499379793e-002 -2.5178372260904465e+000
    1.2345849441166793e-002 -1.8493396582343347e+000
    1.4214745595951542e-002 -1.3904390317106601e+000
    1.3630912869548997e-002 -1.8597866064625213e+000
    1.6006749014503475e-002 -2.7195466575641407e+000
    1.3033123764461967e-002 -2.2040460410567904e+000
    1.1026663042645822e-002 -1.4558870770640033e+000
    1.4290554955388314e-002 -2.4481308478019668e+000
    1.3307102175166789e-002 -2.3532870913328288e+000
    1.4957143949601161e-002 -1.6795210750518814e+000
    1.4732645978054319e-002 -1.6244379151469115e+000
    1.4934689247609455e-002 -2.1842812729587027e+000
    1.3302045763530826e-002 -2.0606346892794085e+000
    1.4368713301787800e-002 -2.0400379841138281e+000
    1.2737843100048366e-002 -1.7796182126667572e+000
    1.2549687543171418e-002 -1.5940891999281739e+000
    1.4889286108898831e-002 -2.3802178210197993e+000
    1.5872587637524634e-002 -2.4964934922553330e+000
    1.4696482921776692e-002 -2.3309438385211263e+000
    1.4262028586513568e-002 -2.3770047644189281e+000
    1.3518821013256929e-002 -2.0522321343735865e+000
    1.3904827202374589e-002 -1.8344329531932742e+000
    1.3602840535961700e-002 -2.4825939691493213e+000
    1.4432092754888904e-002 -1.9807245523154193e+000
    1.3953648905801943e-002 -2.2638244944229675e+000
    1.5348534246836109e-002 -2.7486666747042334e+000
    1.3198950169390286e-002 -1.0980793265923308e+000
    1.5767643947738958e-002 -2.7427816647091916e+000
    1.3573227792696969e-002 -2.5673006301675612e+000
    1.5892601226619604e-002 -1.7504817328831126e+000
    1.5282267001195676e-002 -1.6624559452800696e+000
    1.6252612908481075e-002 -2.5021800495545974e+000
    1.4604213185643445e-002 -2.5700981171201520e+000
    1.2476848333334411e-002 -1.9139485343334988e+000
    1.3348996152023790e-002 -1.4563013190960621e+000
    1.3677885789855133e-002 -1.7796449177689291e+000
    1.4866285286435124e-002 -2.4740802335580585e+000
    1.2921365534687394e-002 -2.0952712068136425e+000
    1.0739946194266886e-002 -1.5481035775358256e+000
    1.5088193633597258e-002 -2.6731249720856471e+000
    1.2769922577074534e-002 -2.1593939077833038e+000
    1.3748203124642290e-002 -1.6704066796440382e+000
    1.4440736852651029e-002 -1.6580372696318821e+000
    1.6008115745020982e-002 -2.3234890664134342e+000
    1.3645232669931839e-002 -2.0935577258083757e+000
    1.4105245361245392e-002 -2.1341236231564280e+000
    1.3058996891909301e-002 -1.7953944226893304e+000
    1.3177930426700381e-002 -1.6276940398712754e+000
    1.5077751471742101e-002 -2.4745103123707413e+000
    1.4490141936831966e-002 -2.1592726509535769e+000
    1.4087045775839618e-002 -2.2185531869638968e+000
    1.4092713191401809e-002 -2.2349477264542004e+000
    1.3240262152376565e-002 -1.8680538756764182e+000
    1.3963511865611903e-002 -1.8441144670518119e+000
    1.3855498226488183e-002 -2.4867540316940402e+000
    1.5736143322026542e-002 -2.1153747775726459e+000
    1.3105804710191817e-002 -2.0379526324348274e+000
    1.4845785657911609e-002 -2.5974351540256126e+000
    1.2164125690715481e-002 -1.1449821198766243e+000
    1.5598273367048724e-002 -2.6679113452851615e+000
    1.2774676580137430e-002 -2.2764473665804901e+000
    1.4763395611410214e-002 -1.7359292673083175e+000
    1.5659630086487738e-002 -1.7266482129251228e+000
    1.5116960985560793e-002 -2.3595896436128672e+000
    1.3842045293227171e-002 -2.3232335019649226e+000
    1.2799315478803754e-002 -1.9078801867321307e+000
    1.2464338784348633e-002 -1.5041687059645612e+000
    1.3227002093523656e-002 -1.8276777559451132e+000
    1.5158916326017709e-002 -2.4878308177049400e+000
    1.3584368834524675e-002 -2.1759140124278633e+000
    1.1016934510725508e-002 -1.5408407017084149e+000
    1.3676477652905515e-002 -2.2569227344550300e+000
    1.3240690175632626e-002 -2.2682037864757332e+000
    1.4293413564232912e-002 -1.6355635510139181e+000
    1.4868770602756940e-002 -1.7659969262018924e+000
    1.4638759646826354e-002 -2.0649597010698217e+000
    1.2444103695903428e-002 -1.8798201310850562e+000
    1.4465345055921038e-002 -2.0590615056822710e+000
    1.3145317543303118e-002 -1.7424848699067355e+000
    1.3647807559164036e-002 -1.5787480499828530e+000
    1.5725480149424379e-002 -2.5584482565327389e+000
    1.4142745913844989e-002 -2.1064048622459461e+000
    1.4391988034308308e-002 -2.3513310228496591e+000
    1.4657709074201780e-002 -2.4188477241116093e+000
    1.3600585090144014e-002 -2.0091842118445529e+000
    1.4474792792940771e-002 -1.8690978271462351e+000
    1.3370757396117991e-002 -2.4050278456339567e+000
    1.4639608256468553e-002 -2.0078222723746619e+000
    1.3951127292662201e-002 -2.2068358189109492e+000
    1.4581769364140410e-002 -2.5885881014541257e+000
    1.2194959087970572e-002 -1.1287789631370984e+000
    1.5199747300484538e-002 -2.6008456491940208e+000
    1.4377851702846133e-002 -2.7078287373693550e+000
    1.4207687639692436e-002 -1.5948918691534744e+000
    1.4650215485622162e-002 -1.6564510309076790e+000
    1.5669055588347195e-002 -2.3413051061343673e+000
    1.3677209147562701e-002 -2.3485287796270442e+000
    1.3246601418623327e-002 -1.9389344865359379e+000
    1.3442265070980676e-002 -1.4389944758484814e+000
    1.3615781611049305e-002 -1.8376010148734487e+000
    1.4921340585024038e-002 -2.4441155878269374e+000
    1.3958020368909051e-002 -2.3274998965155844e+000
    1.1287168558150205e-002 -1.6131872129276232e+000
    1.3876155037455267e-002 -2.4547689158760448e+000
    1.3067174255920478e-002 -2.2140874868406595e+000
    1.2780257788221006e-002 -1.4549613477568049e+000
    1.4095357319365603e-002 -1.7028757792606912e+000
    1.4926072228583399e-002 -2.1914790936500115e+000
    1.2471109343416862e-002 -1.8811975605136368e+000
    1.3775648244542936e-002 -1.9667033810459134e+000
    1.3146086556486126e-002 -1.7472609709854114e+000
    1.3123949069514890e-002 -1.7077174172565432e+000
    1.4932509083809106e-002 -2.3447357596932252e+000
    1.4827817789393880e-002 -2.1002780131021463e+000
    1.5455323813934795e-002 -2.4245968547660595e+000
    1.3862864527214552e-002 -2.1492831131165362e+000
    1.3860738628648362e-002 -2.0218967454023336e+000
    1.3531463556097400e-002 -1.8220867426260487e+000
    1.3081053399707325e-002 -2.2593159396861169e+000
    1.6504809609154250e-002 -2.3203011508869351e+000
    1.3831444029577308e-002 -2.1478695750819163e+000
    1.4959139493652142e-002 -2.6187635810248477e+000
    1.2958998345046196e-002 -1.0876919277608774e+000
    1.5590591922197713e-002 -2.6725739130629589e+000
    1.2676642404246237e-002 -2.2760207178912775e+000
    1.4963189901385078e-002 -1.6680631586732941e+000
    1.5332134430009579e-002 -1.6671140836897083e+000
    1.5029105326706097e-002 -2.2025988806583712e+000
    1.4133216365473046e-002 -2.3797195644708724e+000
    1.2453710758146535e-002 -1.8515208533264411e+000
    1.2875039941883727e-002 -1.2971602741447854e+000
    1.3817866028469006e-002 -1.8171261486660548e+000
    1.4990196078404249e-002 -2.4525626361611397e+000
    1.3304525602521848e-002 -2.1725551168606927e+000
    1.1148704835445397e-002 -1.6304980821838895e+000
    1.4709682562387312e-002 -2.5153557181682302e+000
    1.2995964462859532e-002 -2.2763875752749900e+000
    1.4281472573432614e-002 -1.6233273825135073e+000
    1.5874913634365821e-002 -1.7949235682589622e+000
    1.5019780987141323e-002 -2.1824576206593402e+000
    1.2930670257566281e-002 -1.9078485594469183e+000
    1.4822335652510390e-002 -2.1445449299907118e+000
    1.3129589893833667e-002 -1.6824110605626308e+000
    1.2612727469723696e-002 -1.5467408120371160e+000
    1.5550852334230342e-002 -2.5722837633298563e+000
    1.3914215255913307e-002 -2.0996550821173181e+000
    1.3643736409559138e-002 -2.0700580074725559e+000
    1.3273917585190108e-002 -2.1164524149719783e+000
    1.2340149816348135e-002 -1.7590883563204267e+000
    1.3564467867951751e-002 -1.8164329638283832e+000
    1.4430733431055403e-002 -2.6210220447860793e+000
    1.5358487285615015e-002 -2.2154617909499659e+000
    1.3878281232125525e-002 -2.2137400596488228e+000
    1.6088809616150380e-002 -2.8314517278911762e+000
    1.2356078992847385e-002 -1.0856874741715234e+000
    1.4828431059415361e-002 -2.6118633707709114e+000
    1.3345830038929286e-002 -2.4991549617899413e+000
    1.5044613930960448e-002 -1.7051398266973561e+000
    1.4722015507087780e-002 -1.6410139951900511e+000
    1.4849101154545774e-002 -2.2106186868797950e+000
    1.5349767774634971e-002 -2.7908436108915482e+000
    1.2807597356666678e-002 -1.9471817181252238e+000
    1.3158704390684471e-002 -1.4286697772619257e+000
    1.4317708798959505e-002 -1.9717871300967065e+000
    1.4451839160202987e-002 -2.3087615938377617e+000
    1.3319184291429795e-002 -2.2192720848253469e+000
    1.0908058528736051e-002 -1.5530651331913750e+000
    1.5158759790063500e-002 -2.6718998436630259e+000
    1.2751928645365391e-002 -2.2269826498170060e+000
    1.4140533295315543e-002 -1.6797382384468720e+000
    1.4804429307869108e-002 -1.7636187647146515e+000
    1.5674843922792524e-002 -2.2239991052455457e+000
    1.2697784746515749e-002 -1.8199452704186656e+000
    1.4635517233859030e-002 -2.1141004644309369e+000
    1.3346521745757643e-002 -1.7912515129667397e+000
    1.3158302726882161e-002 -1.5705896338170180e+000
    1.6293687563711676e-002 -2.6203870421906976e+000
    1.5239191854319980e-002 -2.1626953106589104e+000
    1.4371589396820891e-002 -2.2564193774641956e+000
    1.3957681968248108e-002 -2.2571898022985231e+000
    1.4156826146698075e-002 -2.0558857526371539e+000
    1.4216761541070762e-002 -1.9343483716798002e+000
    1.3684888273138490e-002 -2.4825147599043951e+000
    1.4207067753588576e-002 -1.8834625433549121e+000
    1.3770109194541564e-002 -2.1611421374766624e+000
    1.6473428274232108e-002 -2.9644849369940358e+000
    1.2248709375130612e-002 -1.0431817484486239e+000
    1.5659061211213236e-002 -2.8009710767635143e+000
    1.3137019559546027e-002 -2.4548710550271680e+000
    1.6279749755416521e-002 -1.7025904952539777e+000
    1.6474864803543526e-002 -1.6967280207116104e+000
    1.5109211235432381e-002 -2.2683962468129146e+000
    1.5803222729373245e-002 -2.8960283608394768e+000
    1.2244049874627801e-002 -1.7677687118990404e+000
    1.3780463811791420e-002 -1.5324641340034935e+000
    1.3277440973419045e-002 -1.7680387927326724e+000
    1.5876343515963596e-002 -2.6135107484528741e+000
    1.2477659259659405e-002 -1.9580220191574420e+000
    1.0527079418339904e-002 -1.4586438209600863e+000
    1.4634990859651224e-002 -2.6269808593073947e+000
    1.3710894497371789e-002 -2.4616387637309116e+000
    1.4811218560100949e-002 -1.7755359671658795e+000
    1.3569122140187524e-002 -1.5494429803856353e+000
    1.5550728895937879e-002 -2.0774909875589898e+000
    1.3860924050930541e-002 -2.0638145860499413e+000
    1.4660780155134239e-002 -2.2311263932755123e+000
    1.3581974552350547e-002 -1.7621857427533036e+000
    1.2737223280135646e-002 -1.4539540374274842e+000
    1.5935591786499070e-002 -2.6334450737844519e+000
    1.5496925633897051e-002 -2.3628506890128032e+000
    1.3446155429854681e-002 -1.9958576709714300e+000
    1.3870061363570404e-002 -2.2886371808855812e+000
    1.3609076185547610e-002 -2.0016682889576276e+000
    1.4929725906171422e-002 -1.7993637433804603e+000
    1.3302021245652856e-002 -2.3965069276404245e+000
    1.5789521310416187e-002 -2.2080768356988680e+000
    1.3814234434243341e-002 -2.2135775765937815e+000
    1.5205489959551016e-002 -2.6747301588292434e+000
    1.2350399528364931e-002 -1.1140746507892298e+000
    1.6029461694376943e-002 -2.8731029035871294e+000
    1.3266322248823834e-002 -2.3916967960921234e+000
    1.5138295787638355e-002 -1.6229935117213610e+000
    1.5902431989862052e-002 -1.7286827041423931e+000
    1.4128403776061496e-002 -1.9519959639270739e+000
    1.3999765514533195e-002 -2.2640731896003405e+000
    1.2297820956681305e-002 -1.7668552653374179e+000
    1.4050670137625234e-002 -1.4248940705122835e+000
    1.2982423782032055e-002 -1.7611379106092153e+000
    1.6605627036560558e-002 -2.7954650581214335e+000
    1.2452040787513044e-002 -2.0260853921371225e+000
    1.1569712874803849e-002 -1.5040626737245002e+000
    1.5728050245085046e-002 -2.9008641115921026e+000
    1.4415181945742178e-002 -2.5741510737888378e+000
    1.4092643435953100e-002 -1.5541836935950277e+000
    1.4249056566069385e-002 -1.6103017148165746e+000
    1.5574395401144893e-002 -2.2061131085721741e+000
    1.3570087080964565e-002 -2.0769018277416267e+000
    1.4302306333220736e-002 -2.1254816356314152e+000
    1.2806005776479234e-002 -1.6403070510139179e+000
    1.3485216460270885e-002 -1.6707434015583389e+000
    1.4608635561803050e-002 -2.2770804886528233e+000
    1.3994919864235431e-002 -2.0651836746323418e+000
    1.3759075589658325e-002 -2.2466277258647103e+000
    1.3320120662431323e-002 -2.0609926698298602e+000
    1.3072952022512775e-002 -1.9055280123037095e+000
    1.3770558289795010e-002 -1.7783145969238054e+000
    1.2230862114548434e-002 -1.9823509518324223e+000
    1.5586395460751905e-002 -2.2637507585024279e+000
    1.3048562634052453e-002 -2.0855227689947502e+000
    1.6903031434238273e-002 -3.0988890962770168e+000
    1.4016003850873794e-002 -1.1257965759774073e+000
    1.5831067212561219e-002 -2.6631373066464095e+000
    1.3059400081765335e-002 -2.3913212594165856e+000
    1.4305898074207894e-002 -1.5491698070136681e+000
    1.4729100143145653e-002 -1.5476192833739653e+000
    1.4936646811951818e-002 -2.2668021164560437e+000
    1.4458282050340063e-002 -2.5203998565309473e+000
    1.3413497600771486e-002 -2.0390006741794968e+000
    1.3919015857233942e-002 -1.4321894038434990e+000
    1.4163058024283337e-002 -1.7976067979043171e+000
    1.4610387925861147e-002 -2.3607951823537303e+000
    1.3102629894934329e-002 -2.2284661755751087e+000
    1.1356347447731827e-002 -1.5737373929790150e+000
    1.4109067752187950e-002 -2.4793551226080948e+000
    1.3150693784736430e-002 -2.3076545215815827e+000
    1.3022208689239168e-002 -1.4478525694319082e+000
    1.4974656250566935e-002 -1.8304021490276317e+000
    1.4812394869504964e-002 -1.9995910163005617e+000
    1.2751874085384191e-002 -1.8128914324721190e+000
    1.3897674894772526e-002 -2.0320716975306561e+000
    1.2756374356136170e-002 -1.6930543520449617e+000
    1.1981873261875567e-002 -1.5515194554877538e+000
    1.5081881443673976e-002 -2.3182527543531752e+000
    1.5579330745617959e-002 -2.3130978565368885e+000
    1.4717059442804383e-002 -2.2685529516669467e+000
    1.3881980305661415e-002 -2.1864890202544820e+000
    1.2806723372784195e-002 -1.8593939368019010e+000
    1.4639708532680984e-002 -1.8600563007911894e+000
    1.3290697233946375e-002 -2.3517888755468110e+000
    1.4303791046701504e-002 -2.0065040218289609e+000
    1.4578824071227032e-002 -2.3616885060717165e+000
    1.5364745988024077e-002 -2.7538746392535152e+000
    1.2878270729185879e-002 -1.0560897457417375e+000
    1.5817386864137854e-002 -2.6889557669034354e+000
    1.2653323774166678e-002 -2.2778091680795716e+000
    1.5249628049752245e-002 -1.6506875162298484e+000
    1.5482495608959448e-002 -1.5876439108342972e+000
    1.4952201372562752e-002 -2.2651754401578539e+000
    1.4050705453640391e-002 -2.4252298207730738e+000
    1.3632600051351196e-002 -2.0932857378849761e+000
    1.3759598179373519e-002 -1.3300180484606658e+000
    1.3625525589623174e-002 -1.8864540178833284e+000
    1.4514902076459805e-002 -2.4173763024895116e+000
    1.3100585877568354e-002 -2.1972593757988257e+000
    1.1192892054763896e-002 -1.5431889006837536e+000
    1.4435105489384724e-002 -2.4051291596229847e+000
    1.2959403930891421e-002 -2.2124582377571853e+000
    1.3856244045794898e-002 -1.5686807842511579e+000
    1.4737862187517320e-002 -1.6452366821998503e+000
    1.5378717857594773e-002 -2.3099688595321659e+000
    1.3224393776042249e-002 -2.0308260708742214e+000
    1.4181766046408200e-002 -2.0720348069693846e+000
    1.2488129993315939e-002 -1.5797484441544662e+000
    1.2374127313783959e-002 -1.5575589030466843e+000
    1.4873973184153115e-002 -2.3306689647724368e+000
    1.4855984057426927e-002 -2.1595648824812943e+000
    1.3960934721616702e-002 -2.2487187799101833e+000
    1.3022156072538673e-002 -2.0007095899225389e+000
    1.2886668116358479e-002 -1.8878252864458707e+000
    1.4057105385450670e-002 -1.8627226536320522e+000
    1.3108320391793373e-002 -2.2563788834406990e+000
    1.3759611043871281e-002 -1.9339133322161088e+000
    1.3013661801746131e-002 -1.9998383283227761e+000
    1.5501854358820647e-002 -2.6793232830959401e+000
    1.2058346558018270e-002 -1.0665607530567160e+000
    1.4732028972696978e-002 -2.5220415155203191e+000
    1.3314806350655619e-002 -2.4655322804094579e+000
    1.5216650585350149e-002 -1.5881110994243770e+000
    1.5214977971305596e-002 -1.7350991823166111e+000
    1.5167029716890382e-002 -2.3806338366183555e+000
    1.4250006774321235e-002 -2.4901886838126357e+000
    1.2481421828938660e-002 -1.8196526201944907e+000
    1.4217222511054544e-002 -1.3920240529712515e+000
    1.3446961388793813e-002 -1.7417550265540431e+000
    1.4767075605307390e-002 -2.4706137880768444e+000
    1.2685366204248363e-002 -2.0366355440920749e+000
    1.1098000113732681e-002 -1.5424370491402803e+000
    1.4270194361052913e-002 -2.4421852071790831e+000
    1.3811417477536022e-002 -2.3222363886534874e+000
    1.3832902747228770e-002 -1.5209276570578032e+000
    1.4591255449708079e-002 -1.6529460548610968e+000
    1.4448473759818739e-002 -1.9417143347223071e+000
    1.3610306416408367e-002 -1.9785604888786543e+000
    1.4361840432759490e-002 -2.0353121533292327e+000
    1.2899391739940334e-002 -1.7270852274031225e+000
    1.2977525614675489e-002 -1.6285352699127220e+000
    1.5815002063398767e-002 -2.5366384698465878e+000
    1.4774742479002290e-002 -2.2568419136675999e+000
    1.4467672344110678e-002 -2.2196624414164470e+000
    1.4167099759728612e-002 -2.2453278996974322e+000
    1.3466176558628511e-002 -1.9121970713252485e+000
    1.3595800179009895e-002 -1.8281063985143138e+000
    1.3093006078872852e-002 -2.3462666893340147e+000
    1.4395291321754310e-002 -2.0061437933678161e+000
    1.2894208463409402e-002 -2.1052660696174383e+000
    1.5103165308419143e-002 -2.6703235330024397e+000
    1.2100586969021922e-002 -1.1150690891953701e+000
    1.6022240602175136e-002 -2.7147906451429971e+000
    1.3246104818368012e-002 -2.3748794149909584e+000
    1.5692439510178593e-002 -1.8154408908886610e+000
    1.5556028418823815e-002 -1.7864370191417061e+000
    1.6425120919888365e-002 -2.3512560596820196e+000
    1.4218113669427487e-002 -2.5097340312151086e+000
    1.2567309662418279e-002 -1.8060620352635335e+000
    1.2853825588209527e-002 -1.4395570557373103e+000
    1.3084825131634956e-002 -1.8620433097046076e+000
    1.6230190391564286e-002 -2.7704934998400237e+000
    1.3439524164879925e-002 -2.2702342875407724e+000
    1.1064308231130840e-002 -1.4991522969391671e+000
    1.3823555019379345e-002 -2.2864160002053437e+000
    1.2867433566165491e-002 -2.1620147820839395e+000
    1.3365636023970479e-002 -1.5366026215558060e+000
    1.4322434222377200e-002 -1.6935482777170907e+000
    1.4812979442600618e-002 -2.1013034282631344e+000
    1.2130907629493275e-002 -1.8324409913662341e+000
    1.4287247349289224e-002 -2.1679310380618695e+000
    1.2393304910417548e-002 -1.5744316854806559e+000
    1.3298450275729540e-002 -1.5155061694780003e+000
    1.5196832833378813e-002 -2.5431055478168698e+000
    1.4622785258150247e-002 -2.1268841157979534e+000
    1.3684500183465259e-002 -2.0879506279927216e+000
    1.4011496237105738e-002 -2.2205886286439740e+000
    1.3904611470151332e-002 -1.9723691370409664e+000
    1.3694469158946862e-002 -1.7666626018883616e+000
    1.2884975704436858e-002 -2.2666819760055170e+000
    1.5645310410115441e-002 -2.1564452848609119e+000
    1.2809100177863268e-002 -1.9897513892957492e+000
    1.4867154054534240e-002 -2.6086073694686385e+000
    1.2515728814295109e-002 -1.1709854942307998e+000
    1.4510382497801195e-002 -2.3141641686909935e+000
    1.2818258006943986e-002 -2.2647013396490703e+000
    1.5686458268214812e-002 -1.8780176426668289e+000
    1.5966487097930526e-002 -1.6645062799592574e+000
    1.5595713848485425e-002 -2.1336669401822337e+000
    1.5115597096449419e-002 -2.7096387306174079e+000
    1.2725794995231781e-002 -1.8313832975360222e+000
    1.2944824678277414e-002 -1.4475909774947004e+000
    1.2861337124379682e-002 -1.7722922557395204e+000
    1.5259491396427401e-002 -2.4565237899682044e+000
    1.3252327598937054e-002 -2.1483495518721289e+000
    1.1379115726817615e-002 -1.4587394188684251e+000
    1.4862642105140527e-002 -2.6045954586919597e+000
    1.3144924254479263e-002 -2.2923287352672448e+000
    1.3561285467668846e-002 -1.4390030690693054e+000
    1.4954586449754358e-002 -1.6435090508280039e+000
    1.4091886040531881e-002 -1.9698890919547956e+000
    1.3006782789721387e-002 -2.0190862483910830e+000
    1.4453990353350864e-002 -2.1787784458748276e+000
    1.2719431780624785e-002 -1.6172757509064415e+000
    1.3276960400347438e-002 -1.5647635440720586e+000
    1.5164528589771303e-002 -2.5927131519456217e+000
    1.5423947134767326e-002 -2.3897692313418109e+000
    1.3350153622566424e-002 -1.9857611838366300e+000
    1.3410127026603385e-002 -2.1927792709667639e+000
    1.2831618135561641e-002 -1.9293050734491126e+000
    1.3995926068684324e-002 -1.7162893117448283e+000
    1.4052340769737404e-002 -2.6062408014272971e+000
    1.5003025342106754e-002 -2.1273456433699485e+000
    1.3569163201405580e-002 -2.1408370319817616e+000
    1.5377522230119485e-002 -2.5693276726157976e+000
    1.2554120350952283e-002 -1.1300800669248880e+000
    1.5254654485195586e-002 -2.6444791030891284e+000
    1.3209296935250213e-002 -2.4675700524877131e+000
    1.6305231863489585e-002 -1.7921261510404332e+000
    1.4516968389568383e-002 -1.5976730210963870e+000
    1.4826867016596740e-002 -2.1625809258540603e+000
    1.5190244733944553e-002 -2.6274903877297984e+000
    1.2832267654146768e-002 -1.9288324091699718e+000
    1.3666803860998736e-002 -1.4451126549243831e+000
    1.2773208771686658e-002 -1.7578773760678996e+000
    1.5243761622598571e-002 -2.4813456419007673e+000
    1.2967665830584488e-002 -2.1529927408167633e+000
    1.1286421411565668e-002 -1.5212842015967014e+000
    1.4794860708718821e-002 -2.5674836886569437e+000
    1.3177201290650340e-002 -2.1377080827126700e+000
    1.4285783978122198e-002 -1.5327852553859669e+000
    1.3935061824502885e-002 -1.6316409056290155e+000
    1.4342718770048267e-002 -2.1011286180411264e+000
    1.3430483672715441e-002 -1.9630890301619068e+000
    1.4004067738572179e-002 -2.1143030270190977e+000
    1.2550300214238570e-002 -1.7311744667740525e+000
    1.2379588025290603e-002 -1.5590027853182633e+000
    1.4657684434800465e-002 -2.2713710663327187e+000
    1.5347722771844624e-002 -2.2978098943246712e+000
    1.4018690100742274e-002 -2.2472739047606574e+000
    1.4392396789513127e-002 -2.2862322300141602e+000
    1.3269784888447213e-002 -1.9502897734659501e+000
    1.3484795463812880e-002 -1.8006696876011465e+000
    1.2182452436497645e-002 -2.0705431521654023e+000
    1.5907664227549571e-002 -2.3822610939879239e+000
    1.3909592133174480e-002 -2.2402943640714517e+000
    1.4965456153527363e-002 -2.4102698549486568e+000
    1.2385230851994415e-002 -1.1138450946226977e+000
    1.6048052910618081e-002 -2.8798230948104147e+000
    1.2914420003096666e-002 -2.3451151790067648e+000
    1.5302719489945779e-002 -1.6769230107732249e+000
    1.8262610731724128e-002 -1.7825322663647845e+000
    1.4375879293011897e-002 -2.1753101350209167e+000
    1.4495764278099232e-002 -2.4870704900029921e+000
    1.3048830070732261e-002 -1.8145848083361067e+000
    1.3798775114176978e-002 -1.4046386467614711e+000
    1.3410614389930820e-002 -1.8269727003882419e+000
    1.5274814444781461e-002 -2.5478390493895477e+000
    1.3980931238796320e-002 -2.2989311266994084e+000
    1.1474478748107310e-002 -1.6029846811105910e+000
    1.4590262223016681e-002 -2.4843163715179903e+000
    1.2727490002224546e-002 -2.1100057175354592e+000
    1.3798238966865084e-002 -1.5802816461217983e+000
    1.5352408157350238e-002 -1.8009227680136126e+000
    1.5841525645334961e-002 -2.2618178282506025e+000
    1.3625820724606618e-002 -2.1158628615193309e+000
    1.4236582777627384e-002 -2.0277639402933936e+000
    1.2609159743209241e-002 -1.5664779454313613e+000
    1.1987608686208285e-002 -1.5627179878993189e+000
    1.6378184283628566e-002 -2.6961221028233227e+000
    1.5780689650775431e-002 -2.5301705740076610e+000
    1.3226781829901004e-002 -2.0674929642560813e+000
    1.3607759767720648e-002 -2.1586442911527519e+000
    1.2686108449491900e-002 -1.8487183929923448e+000
    1.3716740032210134e-002 -1.6981324159876146e+000
    1.5338388913104618e-002 -2.7911607158263432e+000
    1.4491642717237695e-002 -2.0258511427436230e+000
    1.5758797229699778e-002 -2.6684021153556641e+000
    1.4787990609564592e-002 -2.3999265649255603e+000
    1.1825274107770005e-002 -1.1235324321726812e+000
    1.4894212069334074e-002 -2.5501373431378158e+000
    1.3283865180680355e-002 -2.4760386704278146e+000
    1.5316677887633605e-002 -1.7140213482811315e+000
    1.6100861881045078e-002 -1.6854024420147298e+000
    1.5885862372900621e-002 -2.4596610240707797e+000
    1.4537600329000304e-002 -2.5169432036275858e+000
    1.3216977115247691e-002 -2.0348270545430220e+000
    1.4200431690612558e-002 -1.4827617423614614e+000
    1.3227230832229979e-002 -1.8116162317053648e+000
    1.5832013649376631e-002 -2.6161522999281028e+000
    1.2957246830278759e-002 -2.1587493066290540e+000
    1.1503922699964645e-002 -1.5919511696301074e+000
    1.3954316087747425e-002 -2.2667236004980387e+000
    1.3418318023983172e-002 -2.2988560623532948e+000
    1.3897691464379471e-002 -1.5890466001577439e+000
    1.4793652997396271e-002 -1.6544235268754828e+000
    1.6168290219177331e-002 -2.4575801133149544e+000
    1.3647613023833596e-002 -2.0399390467013494e+000
    1.4675992174048174e-002 -2.1557401837879651e+000
    1.2146064322740180e-002 -1.5748047175783908e+000
    1.2097531930295053e-002 -1.5796688360536384e+000
    1.4887325565588897e-002 -2.3312724762069679e+000
    1.4559325921805252e-002 -2.2061423028735456e+000
    1.4111045610170282e-002 -2.2309563109679216e+000
    1.2615725323273312e-002 -1.9519330569620097e+000
    1.2921072468200661e-002 -1.8612804890443053e+000
    1.4055951446936995e-002 -1.8734240620192524e+000
    1.3270509414094156e-002 -2.2129311698525012e+000
    1.5374670103590839e-002 -2.2263376458338620e+000
    1.3893979820522177e-002 -2.3116494870277675e+000
    1.5212614734619665e-002 -2.6840968408710331e+000
